SVM-light Version V6.02
0 # kernel type
3 # kernel parameter -d 
1 # kernel parameter -g 
1 # kernel parameter -s 
1 # kernel parameter -r 
empty# kernel parameter -u 
57 # highest feature index 
3681 # number of training documents 
3197 # number of support vectors plus 1 
1.0203515 # threshold b, each following line is a SV (starting with alpha*y)
-0.017839103840643990434022825297689 1:-0.32373646 2:-0.17667121 3:-0.50017285 4:-0.098842546 5:-0.44537586 6:-0.34561899 7:-0.26157999 8:-0.31560028 9:-0.30961666 10:-0.41393355 11:-0.22640149 12:-0.60592264 13:-0.21933696 14:-0.16083114 15:-0.15391792 16:-0.30765641 17:-0.37343216 18:-0.36310151 19:-0.88086981 20:-0.14419276 21:-0.57808203 22:-0.062323686 23:-0.26375422 24:-0.25234732 25:-0.40743604 26:-0.4047187 27:-0.27057403 28:-0.30796358 29:-0.16733444 30:-0.27352092 31:-0.20108834 32:-0.16073692 33:-0.18338262 34:-0.16487801 35:-0.27398148 36:-0.30811864 37:-0.39074841 38:-0.11907394 39:-0.21418162 40:-0.20511942 41:-0.13776088 42:-0.16252463 43:-0.2478133 44:-0.17397934 45:-0.31722111 46:-0.15619448 47:-0.066107452 48:-0.14383133 49:-0.22159693 50:-0.64531434 51:-0.26362848 52:-0.52965069 53:-0.34909117 54:-0.28615856 55:-0.099646755 56:-0.32083806 57:-0.63088483 #
0.017839103840643990434022825297689 1:-0.32373646 2:-0.17667121 3:-0.50017285 4:-0.098842546 5:-0.44537586 6:-0.34561899 7:-0.26157999 8:-0.31560028 9:-0.30961666 10:-0.41393355 11:-0.22640149 12:4.6282167 13:-0.21933696 14:-0.16083114 15:-0.15391792 16:-0.30765641 17:-0.37343216 18:-0.36310151 19:2.0553911 20:-0.14419276 21:-0.57808203 22:-0.062323686 23:-0.26375422 24:-0.25234732 25:-0.40743604 26:-0.4047187 27:-0.27057403 28:-0.30796358 29:-0.16733444 30:-0.27352092 31:-0.20108834 32:-0.16073692 33:-0.18338262 34:-0.16487801 35:-0.27398148 36:-0.30811864 37:-0.39074841 38:-0.11907394 39:-0.21418162 40:-0.20511942 41:-0.13776088 42:-0.16252463 43:-0.2478133 44:-0.17397934 45:-0.31722111 46:-0.15619448 47:-0.066107452 48:-0.14383133 49:-0.22159693 50:-0.64531434 51:-0.26362848 52:2.5189641 53:-0.34909117 54:7.1053247 55:-0.048083108 56:-0.2402797 57:-0.54727852 #
-0.017839103840643990434022825297689 1:-0.32373646 2:-0.17667121 3:-0.50017285 4:-0.098842546 5:-0.44537586 6:-0.34561899 7:-0.26157999 8:-0.31560028 9:-0.30961666 10:4.6489902 11:-0.22640149 12:-0.60592264 13:-0.21933696 14:-0.16083114 15:-0.15391792 16:-0.30765641 17:-0.37343216 18:-0.36310151 19:-0.88086981 20:-0.14419276 21:-0.57808203 22:-0.062323686 23:-0.26375422 24:-0.25234732 25:6.0518732 26:-0.4047187 27:-0.27057403 28:-0.30796358 29:-0.16733444 30:8.9305544 31:-0.20108834 32:-0.16073692 33:-0.18338262 34:-0.16487801 35:-0.27398148 36:-0.30811864 37:-0.39074841 38:-0.11907394 39:-0.21418162 40:-0.20511942 41:-0.13776088 42:-0.16252463 43:-0.2478133 44:-0.17397934 45:-0.31722111 46:-0.15619448 47:-0.066107452 48:-0.14383133 49:-0.22159693 50:-0.64531434 51:-0.26362848 52:-0.52965069 53:-0.34909117 54:145.76447 55:-0.074406423 56:-0.25818154 57:-0.45770034 #
0.017839103840643990434022825297689 1:-0.32373646 2:-0.17667121 3:-0.50017285 4:-0.098842546 5:-0.44537586 6:-0.34561899 7:-0.26157999 8:-0.31560028 9:-0.30961666 10:-0.41393355 11:-0.22640149 12:4.6282167 13:-0.21933696 14:-0.16083114 15:-0.15391792 16:-0.30765641 17:-0.37343216 18:-0.36310151 19:2.0553911 20:-0.14419276 21:-0.57808203 22:-0.062323686 23:-0.26375422 24:-0.25234732 25:-0.40743604 26:-0.4047187 27:-0.27057403 28:-0.30796358 29:-0.16733444 30:-0.27352092 31:-0.20108834 32:-0.16073692 33:-0.18338262 34:-0.16487801 35:-0.27398148 36:-0.30811864 37:-0.39074841 38:-0.11907394 39:-0.21418162 40:-0.20511942 41:-0.13776088 42:-0.16252463 43:-0.2478133 44:-0.17397934 45:-0.31722111 46:-0.15619448 47:-0.066107452 48:-0.14383133 49:-0.22159693 50:-0.64531434 51:-0.26362848 52:2.5189641 53:-0.34909117 54:7.1053247 55:-0.048083108 56:-0.2402797 57:-0.54727852 #
0.017839103840643990434022825297689 1:-0.32373646 2:-0.17667121 3:-0.50017285 4:-0.098842546 5:-0.44537586 6:-0.34561899 7:-0.26157999 8:50.450264 9:-0.30961666 10:-0.41393355 11:-0.22640149 12:-0.60592264 13:-0.21933696 14:-0.16083114 15:-0.15391792 16:-0.30765641 17:-0.37343216 18:-0.36310151 19:-0.88086981 20:-0.14419276 21:7.112999 22:-0.062323686 23:-0.26375422 24:-0.25234732 25:-0.40743604 26:-0.4047187 27:-0.27057403 28:-0.30796358 29:-0.16733444 30:-0.27352092 31:-0.20108834 32:-0.16073692 33:-0.18338262 34:-0.16487801 35:-0.27398148 36:-0.30811864 37:-0.39074841 38:-0.11907394 39:-0.21418162 40:-0.20511942 41:-0.13776088 42:-0.16252463 43:-0.2478133 44:-0.17397934 45:4.2446685 46:-0.15619448 47:-0.066107452 48:-0.14383133 49:-0.22159693 50:-0.64531434 51:-0.26362848 52:-0.52965069 53:-0.34909117 54:-0.28615856 55:-0.099646755 56:-0.32083806 57:-0.62491298 #
0.017839103840643990434022825297689 1:-0.32373646 2:-0.17667121 3:-0.50017285 4:-0.098842546 5:-0.44537586 6:-0.34561899 7:-0.26157999 8:-0.31560028 9:-0.30961666 10:-0.41393355 11:-0.22640149 12:-0.60592264 13:-0.21933696 14:-0.16083114 15:-0.15391792 16:-0.30765641 17:-0.37343216 18:-0.36310151 19:6.0969367 20:-0.14419276 21:-0.57808203 22:-0.062323686 23:-0.26375422 24:64.48365 25:-0.40743604 26:-0.4047187 27:-0.27057403 28:-0.30796358 29:-0.16733444 30:-0.27352092 31:-0.20108834 32:-0.16073692 33:-0.18338262 34:-0.16487801 35:-0.27398148 36:-0.30811864 37:-0.39074841 38:-0.11907394 39:-0.21418162 40:-0.20511942 41:-0.13776088 42:-0.16252463 43:-0.2478133 44:-0.17397934 45:-0.31722111 46:-0.15619448 47:-0.066107452 48:-0.14383133 49:-0.22159693 50:-0.64531434 51:-0.26362848 52:-0.52965069 53:-0.34909117 54:-0.28615856 55:-0.099646755 56:-0.32083806 57:-0.63088483 #
-0.017839103840643990434022825297689 1:-0.32373646 2:-0.17667121 3:-0.50017285 4:-0.098842546 5:-0.44537586 6:-0.34561899 7:-0.26157999 8:-0.31560028 9:-0.30961666 10:-0.41393355 11:-0.22640149 12:9.0165358 13:-0.21933696 14:-0.16083114 15:-0.15391792 16:-0.30765641 17:-0.37343216 18:-0.36310151 19:0.91661316 20:-0.14419276 21:-0.57808203 22:-0.062323686 23:-0.26375422 24:-0.25234732 25:-0.40743604 26:-0.4047187 27:-0.27057403 28:-0.30796358 29:-0.16733444 30:-0.27352092 31:-0.20108834 32:-0.16073692 33:-0.18338262 34:-0.16487801 35:-0.27398148 36:-0.30811864 37:-0.39074841 38:-0.11907394 39:-0.21418162 40:-0.20511942 41:-0.13776088 42:-0.16252463 43:-0.2478133 44:-0.17397934 45:-0.31722111 46:-0.15619448 47:-0.066107452 48:-0.14383133 49:-0.22159693 50:1.9176279 51:-0.26362848 52:-0.52965069 53:-0.34909117 54:-0.28615856 55:-0.084352262 56:-0.28503433 57:-0.57116604 #
0.017839103840643990434022825297689 1:-0.32373646 2:-0.17667121 3:-0.50017285 4:-0.098842546 5:-0.44537586 6:-0.34561899 7:-0.26157999 8:-0.31560028 9:-0.30961666 10:-0.41393355 11:-0.22640149 12:-0.60592264 13:-0.21933696 14:-0.16083114 15:-0.15391792 16:-0.30765641 17:-0.37343216 18:-0.36310151 19:-0.88086981 20:-0.14419276 21:-0.57808203 22:-0.062323686 23:-0.26375422 24:-0.25234732 25:-0.40743604 26:-0.4047187 27:-0.27057403 28:-0.30796358 29:-0.16733444 30:-0.27352092 31:-0.20108834 32:-0.16073692 33:-0.18338262 34:-0.16487801 35:-0.27398148 36:-0.30811864 37:-0.39074841 38:-0.11907394 39:-0.21418162 40:-0.20511942 41:-0.13776088 42:-0.16252463 43:-0.2478133 44:-0.17397934 45:-0.31722111 46:-0.15619448 47:-0.066107452 48:-0.14383133 49:-0.22159693 50:-0.64531434 51:-0.26362848 52:14.015267 53:-0.34909117 54:-0.28615856 55:-0.099646755 56:-0.32083806 57:-0.63088483 #
-0.017839103840643990434022825297689 1:-0.32373646 2:-0.17667121 3:-0.50017285 4:-0.098842546 5:-0.44537586 6:-0.34561899 7:-0.26157999 8:-0.31560028 9:-0.30961666 10:-0.41393355 11:-0.22640149 12:-0.60592264 13:-0.21933696 14:-0.16083114 15:-0.15391792 16:-0.30765641 17:-0.37343216 18:-0.36310151 19:-0.88086981 20:-0.14419276 21:-0.57808203 22:-0.062323686 23:-0.26375422 24:-0.25234732 25:-0.40743604 26:-0.4047187 27:-0.27057403 28:-0.30796358 29:-0.16733444 30:-0.27352092 31:-0.20108834 32:-0.16073692 33:-0.18338262 34:-0.16487801 35:-0.27398148 36:-0.30811864 37:-0.39074841 38:-0.11907394 39:-0.21418162 40:-0.20511942 41:-0.13776088 42:-0.16252463 43:-0.2478133 44:-0.17397934 45:0.24171309 46:-0.15619448 47:-0.066107452 48:-0.14383133 49:-0.22159693 50:-0.13636127 51:-0.26362848 52:-0.52965069 53:4.9241128 54:-0.28615856 55:-0.071245857 56:-0.20447598 57:-0.39798152 #
0.017839103840643990434022825297689 1:0.63292295 2:-0.17667121 3:-0.50017285 4:-0.098842546 5:-0.44537586 6:0.6545068 7:0.21451369 8:-0.31560028 9:-0.30961666 10:0.099358246 11:-0.22640149 12:-0.38700426 13:-0.21933696 14:-0.16083114 15:-0.15391792 16:-0.012277667 17:-0.37343216 18:-0.36310151 19:0.25232598 20:-0.14419276 21:-0.4257834 22:-0.062323686 23:-0.26375422 24:-0.25234732 25:-0.40743604 26:-0.4047187 27:-0.27057403 28:-0.30796358 29:-0.16733444 30:-0.27352092 31:-0.20108834 32:-0.16073692 33:-0.18338262 34:-0.16487801 35:-0.27398148 36:-0.30811864 37:-0.39074841 38:-0.11907394 39:-0.21418162 40:-0.20511942 41:-0.13776088 42:-0.16252463 43:-0.2478133 44:-0.17397934 45:-0.31722111 46:-0.15619448 47:-0.066107452 48:-0.14383133 49:-0.22159693 50:18.763065 51:-0.26362848 52:1.3524617 53:-0.34909117 54:-0.28615856 55:-0.080440231 56:-0.14181948 57:0.0051203761 #
-0.017839103840643990434022825297689 1:0.37201586 2:0.01580321 3:-0.19414198 4:-0.098842546 5:0.6544103 6:0.38174522 7:-0.26157999 8:0.41550127 9:-0.30961666 10:-0.41393355 11:-0.22640149 12:-0.10838087 13:0.26364049 14:-0.16083114 15:-0.15391792 16:-0.30765641 17:-0.37343216 18:-0.36310151 19:0.42537558 20:-0.14419276 21:-0.11426346 22:-0.062323686 23:-0.26375422 24:-0.25234732 25:-0.40743604 26:-0.4047187 27:-0.27057403 28:-0.30796358 29:-0.16733444 30:-0.27352092 31:-0.20108834 32:-0.16073692 33:-0.18338262 34:-0.16487801 35:-0.27398148 36:-0.30811864 37:-0.39074841 38:-0.11907394 39:-0.21418162 40:-0.20511942 41:-0.13776088 42:-0.16252463 43:-0.2478133 44:0.17580809 45:-0.045973618 46:0.15383683 47:-0.066107452 48:-0.14383133 49:0.51714557 50:-0.38174936 51:-0.26362848 52:-0.52965069 53:-0.34909117 54:-0.28615856 55:-0.079732977 56:-0.18657412 57:-0.23375483 #
-0.017839103840643990434022825297689 1:-0.32373646 2:-0.17667121 3:-0.50017285 4:-0.098842546 5:-0.44537586 6:-0.34561899 7:-0.26157999 8:-0.31560028 9:-0.30961666 10:4.1590295 11:-0.22640149 12:-0.60592264 13:-0.21933696 14:-0.16083114 15:-0.15391792 16:-0.30765641 17:-0.37343216 18:3.3396001 19:0.21325025 20:-0.14419276 21:-0.57808203 22:-0.062323686 23:-0.26375422 24:-0.25234732 25:-0.40743604 26:-0.4047187 27:-0.27057403 28:3.0394073 29:-0.16733444 30:-0.27352092 31:-0.20108834 32:-0.16073692 33:-0.18338262 34:-0.16487801 35:-0.27398148 36:-0.30811864 37:-0.39074841 38:-0.11907394 39:-0.21418162 40:-0.20511942 41:-0.13776088 42:-0.16252463 43:-0.2478133 44:-0.17397934 45:-0.31722111 46:-0.15619448 47:-0.066107452 48:-0.14383133 49:-0.22159693 50:1.0496812 51:-0.26362848 52:-0.52965069 53:-0.34909117 54:-0.28615856 55:-0.080705456 56:-0.23132877 57:-0.55922228 #
-0.017839103840643990434022825297689 1:5.720612 2:-0.17667121 3:3.4973555 4:-0.098842546 5:-0.44537586 6:-0.34561899 7:-0.26157999 8:-0.31560028 9:-0.30961666 10:-0.41393355 11:-0.22640149 12:5.6531529 13:-0.21933696 14:-0.16083114 15:-0.15391792 16:0.61875874 17:-0.37343216 18:-0.36310151 19:1.4580909 20:3.2518694 21:-0.10041813 22:-0.062323686 23:-0.26375422 24:-0.25234732 25:-0.40743604 26:-0.4047187 27:-0.27057403 28:-0.30796358 29:-0.16733444 30:-0.27352092 31:-0.20108834 32:-0.16073692 33:-0.18338262 34:-0.16487801 35:-0.27398148 36:-0.30811864 37:-0.39074841 38:-0.11907394 39:1.2589107 40:-0.20511942 41:-0.13776088 42:-0.16252463 43:-0.2478133 44:-0.17397934 45:-0.31722111 46:-0.15619448 47:-0.066107452 48:-0.14383133 49:-0.22159693 50:-0.64531434 51:-0.26362848 52:0.20923112 53:-0.34909117 54:-0.28615856 55:-0.07754489 56:-0.2134269 57:-0.44575658 #
0.017839103840643990434022825297689 1:-0.32373646 2:-0.17667121 3:0.89609307 4:-0.098842546 5:-0.44537586 6:2.9729803 7:1.3181854 8:-0.31560028 9:-0.30961666 10:-0.41393355 11:-0.22640149 12:-0.60592264 13:-0.21933696 14:-0.16083114 15:-0.15391792 16:0.67246395 17:-0.37343216 18:-0.36310151 19:-0.060279757 20:-0.14419276 21:-0.57808203 22:-0.062323686 23:2.967782 24:-0.25234732 25:-0.40743604 26:-0.4047187 27:-0.27057403 28:-0.30796358 29:-0.16733444 30:-0.27352092 31:-0.20108834 32:-0.16073692 33:-0.18338262 34:-0.16487801 35:-0.27398148 36:-0.30811864 37:-0.39074841 38:-0.11907394 39:-0.21418162 40:-0.20511942 41:-0.13776088 42:-0.16252463 43:-0.2478133 44:-0.17397934 45:-0.31722111 46:-0.15619448 47:-0.066107452 48:-0.14383133 49:-0.22159693 50:-0.64531434 51:-0.26362848 52:2.0157099 53:0.2874307 54:277.77341 55:-0.075776741 56:-0.22237784 57:-0.48158786 #
0.017839103840643990434022825297689 1:-0.32373646 2:-0.17667121 3:-0.50017285 4:-0.098842546 5:-0.44537586 6:-0.34561899 7:-0.26157999 8:-0.31560028 9:-0.30961666 10:-0.41393355 11:-0.22640149 12:-0.60592264 13:-0.21933696 14:-0.16083114 15:-0.15391792 16:1.8539789 17:-0.37343216 18:-0.36310151 19:-0.88086981 20:-0.14419276 21:-0.57808203 22:6.206018 23:-0.26375422 24:-0.25234732 25:-0.40743604 26:-0.4047187 27:-0.27057403 28:-0.30796358 29:-0.16733444 30:-0.27352092 31:-0.20108834 32:-0.16073692 33:-0.18338262 34:-0.16487801 35:-0.27398148 36:-0.30811864 37:-0.39074841 38:-0.11907394 39:-0.21418162 40:-0.20511942 41:-0.13776088 42:-0.16252463 43:-0.2478133 44:-0.17397934 45:-0.31722111 46:-0.15619448 47:-0.066107452 48:-0.14383133 49:5.8411865 50:-0.64531434 51:-0.26362848 52:0.16268739 53:-0.34909117 54:-0.28615856 55:-0.025981244 56:-0.23132877 57:-0.32631898 #
-0.017839103840643990434022825297689 1:-0.32373646 2:-0.17667121 3:-0.50017285 4:-0.098842546 5:4.6427917 6:-0.34561899 7:-0.26157999 8:-0.31560028 9:-0.30961666 10:-0.41393355 11:-0.22640149 12:-0.60592264 13:-0.21933696 14:-0.16083114 15:-0.15391792 16:-0.30765641 17:-0.37343216 18:-0.36310151 19:1.2627124 20:-0.14419276 21:-0.57808203 22:-0.062323686 23:-0.26375422 24:-0.25234732 25:-0.40743604 26:-0.4047187 27:-0.27057403 28:-0.30796358 29:-0.16733444 30:-0.27352092 31:-0.20108834 32:-0.16073692 33:-0.18338262 34:-0.16487801 35:-0.27398148 36:-0.30811864 37:-0.39074841 38:-0.11907394 39:-0.21418162 40:-0.20511942 41:-0.13776088 42:-0.16252463 43:-0.2478133 44:-0.17397934 45:-0.31722111 46:-0.15619448 47:-0.066107452 48:-0.14383133 49:-0.22159693 50:-0.64531434 51:-0.26362848 52:-0.52965069 53:-0.34909117 54:-0.28615856 55:-0.099646755 56:-0.32083806 57:-0.61595517 #
0.017839103840643990434022825297689 1:-0.32373646 2:-0.17667121 3:-0.50017285 4:-0.098842546 5:-0.44537586 6:-0.34561899 7:-0.26157999 8:-0.31560028 9:-0.30961666 10:-0.41393355 11:-0.22640149 12:5.424284 13:-0.21933696 14:-0.16083114 15:-0.15391792 16:-0.30765641 17:-0.37343216 18:-0.36310151 19:4.1933908 20:-0.14419276 21:-0.57808203 22:-0.062323686 23:-0.26375422 24:-0.25234732 25:-0.40743604 26:-0.4047187 27:-0.27057403 28:-0.30796358 29:-0.16733444 30:-0.27352092 31:-0.20108834 32:-0.16073692 33:-0.18338262 34:-0.16487801 35:-0.27398148 36:-0.30811864 37:-0.39074841 38:-0.11907394 39:-0.21418162 40:-0.20511942 41:-0.13776088 42:-0.16252463 43:-0.2478133 44:-0.17397934 45:-0.31722111 46:-0.15619448 47:-0.066107452 48:-0.14383133 49:-0.22159693 50:-0.64531434 51:-0.26362848 52:-0.52965069 53:-0.34909117 54:-0.28615856 55:-0.068704143 56:-0.20447598 57:-0.56519419 #
-0.017839103840643990434022825297689 1:-0.32373646 2:-0.17667121 3:-0.50017285 4:-0.098842546 5:-0.44537586 6:-0.34561899 7:-0.26157999 8:-0.31560028 9:-0.30961666 10:-0.41393355 11:-0.22640149 12:-0.60592264 13:-0.21933696 14:-0.16083114 15:-0.15391792 16:-0.30765641 17:-0.37343216 18:-0.36310151 19:-0.88086981 20:-0.14419276 21:-0.57808203 22:-0.062323686 23:-0.26375422 24:-0.25234732 25:-0.40743604 26:-0.4047187 27:-0.27057403 28:-0.30796358 29:-0.16733444 30:-0.27352092 31:-0.20108834 32:-0.16073692 33:-0.18338262 34:-0.16487801 35:-0.27398148 36:-0.30811864 37:-0.39074841 38:-0.11907394 39:-0.21418162 40:-0.20511942 41:-0.13776088 42:-0.16252463 43:-0.2478133 44:-0.17397934 45:-0.31722111 46:-0.15619448 47:-0.066107452 48:-0.14383133 49:-0.22159693 50:-0.64531434 51:-0.26362848 52:-0.52965069 53:-0.34909117 54:-0.28615856 55:-0.094740137 56:-0.31188715 57:-0.60401142 #
0.017839103840643990434022825297689 1:-0.32373646 2:-0.17667121 3:-0.50017285 4:-0.098842546 5:9.7442093 6:-0.34561899 7:-0.26157999 8:-0.31560028 9:-0.30961666 10:-0.41393355 11:-0.22640149 12:-0.60592264 13:-0.21933696 14:-0.16083114 15:-0.15391792 16:-0.30765641 17:-0.37343216 18:-0.36310151 19:-0.88086981 20:-0.14419276 21:-0.57808203 22:-0.062323686 23:-0.26375422 24:-0.25234732 25:-0.40743604 26:-0.4047187 27:-0.27057403 28:-0.30796358 29:-0.16733444 30:-0.27352092 31:-0.20108834 32:-0.16073692 33:-0.18338262 34:-0.16487801 35:-0.27398148 36:-0.30811864 37:-0.39074841 38:-0.11907394 39:-0.21418162 40:-0.20511942 41:-0.13776088 42:-0.16252463 43:-0.2478133 44:-0.17397934 45:-0.31722111 46:-0.15619448 47:-0.066107452 48:-0.14383133 49:-0.22159693 50:2.0266893 51:-0.26362848 52:-0.52965069 53:-0.34909117 54:-0.28615856 55:-0.099646755 56:-0.32083806 57:-0.61894107 #
-0.017839103840643990434022825297689 1:-0.32373646 2:-0.17667121 3:-0.50017285 4:-0.098842546 5:-0.44537586 6:-0.34561899 7:-0.26157999 8:-0.31560028 9:-0.30961666 10:-0.41393355 11:-0.22640149 12:-0.60592264 13:-0.21933696 14:-0.16083114 15:-0.15391792 16:-0.30765641 17:-0.37343216 18:-0.36310151 19:0.49236253 20:-0.14419276 21:-0.57808203 22:-0.062323686 23:-0.26375422 24:-0.25234732 25:-0.40743604 26:-0.4047187 27:-0.27057403 28:-0.30796358 29:-0.16733444 30:-0.27352092 31:-0.20108834 32:-0.16073692 33:-0.18338262 34:-0.16487801 35:-0.27398148 36:-0.30811864 37:-0.39074841 38:-0.11907394 39:-0.21418162 40:-0.20511942 41:-0.13776088 42:-0.16252463 43:-0.2478133 44:-0.17397934 45:0.69379222 46:-0.15619448 47:-0.066107452 48:-0.14383133 49:-0.22159693 50:-0.64531434 51:-0.26362848 52:55.122112 53:-0.34909117 54:-0.28615856 55:0.17110106 56:0.099855617 57:-0.4786019 #
0.017839103840643990434022825297689 1:-0.32373646 2:-0.17667121 3:-0.50017285 4:-0.098842546 5:-0.44537586 6:-0.34561899 7:-0.26157999 8:-0.31560028 9:-0.30961666 10:-0.41393355 11:-0.22640149 12:-0.60592264 13:-0.21933696 14:-0.16083114 15:-0.15391792 16:13.118649 17:-0.37343216 18:-0.36310151 19:-0.88086981 20:-0.14419276 21:-0.57808203 22:-0.062323686 23:-0.26375422 24:-0.25234732 25:-0.40743604 26:-0.4047187 27:-0.27057403 28:-0.30796358 29:-0.16733444 30:-0.27352092 31:-0.20108834 32:-0.16073692 33:-0.18338262 34:-0.16487801 35:-0.27398148 36:-0.30811864 37:-0.39074841 38:-0.11907394 39:-0.21418162 40:-0.20511942 41:-0.13776088 42:-0.16252463 43:-0.2478133 44:-0.17397934 45:-0.31722111 46:-0.15619448 47:-0.066107452 48:-0.14383133 49:-0.22159693 50:-0.64531434 51:-0.26362848 52:-0.52965069 53:-0.34909117 54:-0.28615856 55:-0.090187155 56:-0.29398528 57:-0.60699731 #
0.017839103840643990434022825297689 1:-0.32373646 2:0.29248518 3:1.7376779 4:-0.098842546 5:0.071391135 6:-0.34561899 7:-0.26157999 8:-0.31560028 9:-0.30961666 10:1.4059192 11:3.2827787 12:0.17024253 13:-0.21933696 14:-0.16083114 15:2.2861688 16:4.4049768 17:-0.37343216 18:-0.36310151 19:-0.22774711 20:-0.14419276 21:0.2318698 22:-0.062323686 23:-0.26375422 24:-0.25234732 25:-0.40743604 26:-0.4047187 27:-0.27057403 28:-0.30796358 29:-0.16733444 30:-0.27352092 31:-0.20108834 32:-0.16073692 33:-0.18338262 34:-0.16487801 35:-0.27398148 36:-0.30811864 37:-0.39074841 38:-0.11907394 39:-0.21418162 40:-0.20511942 41:-0.13776088 42:-0.16252463 43:-0.2478133 44:-0.17397934 45:0.0033441042 46:-0.15619448 47:-0.066107452 48:-0.14383133 49:-0.22159693 50:-0.34539557 51:-0.26362848 52:1.9837111 53:0.42174265 54:1.1116577 55:0.007989319 56:0.064051896 57:0.45002544 #
0.017839103840643990434022825297689 1:2.72018 2:-0.17667121 3:1.5081549 4:-0.098842546 5:-0.44537586 6:-0.34561899 7:-0.26157999 8:6.0815382 9:1.3392241 10:0.40266705 11:-0.22640149 12:-0.2576434 13:-0.21933696 14:-0.16083114 15:-0.15391792 16:2.5118678 17:1.3589318 18:0.2980952 19:0.29140168 20:15.35957 21:0.87567765 22:-0.062323686 23:1.2856125 24:6.9980845 25:-0.40743604 26:-0.4047187 27:-0.27057403 28:-0.30796358 29:-0.16733444 30:-0.27352092 31:-0.20108834 32:-0.16073692 33:-0.18338262 34:-0.16487801 35:-0.27398148 36:-0.30811864 37:-0.39074841 38:-0.11907394 39:-0.21418162 40:-0.20511942 41:-0.13776088 42:-0.16252463 43:-0.2478133 44:-0.17397934 45:-0.31722111 46:-0.15619448 47:-0.066107452 48:-0.14383133 49:-0.22159693 50:-0.11818438 51:-0.26362848 52:0.48267558 53:-0.34909117 54:-0.28615856 55:-0.095977843 56:-0.2134269 57:-0.072514065 #
0.017839103840643990434022825297689 1:-0.32373646 2:-0.17667121 3:-0.50017285 4:-0.098842546 5:-0.44537586 6:-0.34561899 7:-0.26157999 8:-0.31560028 9:-0.30961666 10:-0.41393355 11:-0.22640149 12:-0.60592264 13:-0.21933696 14:-0.16083114 15:-0.15391792 16:6.0832653 17:-0.37343216 18:-0.36310151 19:0.0011249392 20:-0.14419276 21:-0.57808203 22:-0.062323686 23:-0.26375422 24:-0.25234732 25:-0.40743604 26:-0.4047187 27:-0.27057403 28:-0.30796358 29:-0.16733444 30:-0.27352092 31:-0.20108834 32:-0.16073692 33:-0.18338262 34:-0.16487801 35:-0.27398148 36:-0.30811864 37:-0.39074841 38:-0.11907394 39:-0.21418162 40:-0.20511942 41:-0.13776088 42:-0.16252463 43:-0.2478133 44:-0.17397934 45:-0.31722111 46:-0.15619448 47:-0.066107452 48:-0.14383133 49:-0.22159693 50:-0.64531434 51:-0.26362848 52:6.4868174 53:-0.34909117 54:5.389823 55:0.32028863 56:0.89648831 57:-0.099387527 #
-0.017839103840643990434022825297689 1:-0.32373646 2:-0.17667121 3:-0.50017285 4:-0.098842546 5:-0.44537586 6:-0.34561899 7:-0.26157999 8:-0.31560028 9:-0.30961666 10:0.84596449 11:-0.22640149 12:-0.60592264 13:1.4107119 14:-0.16083114 15:-0.15391792 16:-0.30765641 17:-0.37343216 18:-0.36310151 19:2.1502893 20:-0.14419276 21:0.5503124 22:-0.062323686 23:-0.26375422 24:-0.25234732 25:-0.40743604 26:-0.4047187 27:-0.27057403 28:-0.30796358 29:-0.16733444 30:-0.27352092 31:-0.20108834 32:-0.16073692 33:-0.18338262 34:-0.16487801 35:-0.27398148 36:-0.30811864 37:-0.39074841 38:-0.11907394 39:-0.21418162 40:-0.20511942 41:-0.13776088 42:-0.16252463 43:-0.2478133 44:1.0065533 45:1.022577 46:0.89016122 47:-0.066107452 48:-0.14383133 49:-0.22159693 50:-0.26814377 51:-0.26362848 52:-0.52965069 53:-0.34909117 54:-0.28615856 55:-0.059266649 56:0.090904683 57:-0.39200965 #
-0.017839103840643990434022825297689 1:-0.32373646 2:-0.17667121 3:-0.50017285 4:-0.098842546 5:-0.44537586 6:-0.34561899 7:-0.26157999 8:-0.31560028 9:-0.30961666 10:-0.41393355 11:0.85334629 12:0.11053751 13:0.50512922 14:-0.16083114 15:-0.15391792 16:-0.30765641 17:0.22052118 18:-0.36310151 19:-0.47894815 20:1.0370463 21:0.91721368 22:-0.062323686 23:1.8610916 24:-0.25234732 25:-0.40743604 26:-0.4047187 27:-0.27057403 28:-0.30796358 29:-0.16733444 30:-0.27352092 31:-0.20108834 32:-0.16073692 33:-0.18338262 34:-0.16487801 35:0.20633267 36:-0.30811864 37:-0.39074841 38:-0.11907394 39:-0.21418162 40:-0.20511942 41:-0.13776088 42:-0.16252463 43:-0.2478133 44:-0.17397934 45:-0.31722111 46:0.30885249 47:-0.066107452 48:-0.14383133 49:-0.22159693 50:1.3859538 51:-0.26362848 52:-0.17475469 53:1.3152092 54:-0.28615856 55:-0.039662298 56:-0.15972133 57:0.21712212 #
-0.017839103840643990434022825297689 1:-0.32373646 2:-0.17667121 3:-0.50017285 4:-0.098842546 5:-0.44537586 6:-0.34561899 7:-0.26157999 8:-0.31560028 9:-0.30961666 10:-0.41393355 11:-0.22640149 12:-0.60592264 13:-0.21933696 14:39.460632 15:-0.15391792 16:-0.30765641 17:-0.37343216 18:-0.36310151 19:-0.88086981 20:-0.14419276 21:-0.57808203 22:-0.062323686 23:-0.26375422 24:-0.25234732 25:-0.40743604 26:-0.4047187 27:-0.27057403 28:-0.30796358 29:-0.16733444 30:-0.27352092 31:-0.20108834 32:-0.16073692 33:-0.18338262 34:-0.16487801 35:-0.27398148 36:-0.30811864 37:-0.39074841 38:-0.11907394 39:-0.21418162 40:-0.20511942 41:-0.13776088 42:-0.16252463 43:-0.2478133 44:-0.17397934 45:-0.31722111 46:-0.15619448 47:-0.066107452 48:-0.14383133 49:-0.22159693 50:-0.64531434 51:-0.26362848 52:-0.52965069 53:-0.34909117 54:-0.28615856 55:-0.035816573 56:-0.2134269 57:-0.53234881 #
0.017839103840643990434022825297689 1:-0.32373646 2:0.18421832 3:0.073635042 4:-0.098842546 5:0.36290073 6:1.018189 7:-0.26157999 8:-0.31560028 9:-0.30961666 10:0.28600982 11:1.1232833 12:-0.30739757 13:-0.21933696 14:-0.16083114 15:-0.15391792 16:0.92756373 17:-0.37343216 18:-0.36310151 19:-0.54035282 20:-0.14419276 21:-0.57808203 22:-0.062323686 23:-0.26375422 24:-0.25234732 25:-0.40743604 26:-0.4047187 27:-0.27057403 28:-0.30796358 29:-0.16733444 30:6.89463 31:-0.20108834 32:-0.16073692 33:-0.18338262 34:-0.16487801 35:-0.27398148 36:-0.30811864 37:-0.39074841 38:-0.11907394 39:-0.21418162 40:-0.20511942 41:-0.13776088 42:-0.16252463 43:-0.2478133 44:0.48187208 45:-0.31722111 46:-0.15619448 47:-0.066107452 48:-0.14383133 49:-0.22159693 50:-0.21815731 51:-0.26362848 52:-0.52965069 53:-0.34909117 54:-0.28615856 55:-0.074428529 56:0.010346321 57:-0.0038374439 #
-0.017839103840643990434022825297689 1:-0.32373646 2:-0.17667121 3:1.8906934 4:-0.098842546 5:0.37615114 6:-0.34561899 7:-0.26157999 8:-0.31560028 9:-0.30961666 10:-0.41393355 11:-0.22640149 12:0.63793182 13:-0.21933696 14:-0.16083114 15:-0.15391792 16:2.2164891 17:-0.37343216 18:-0.36310151 19:1.5753181 20:-0.14419276 21:-0.57808203 22:-0.062323686 23:-0.26375422 24:6.2212524 25:-0.40743604 26:-0.4047187 27:-0.27057403 28:-0.30796358 29:-0.16733444 30:-0.27352092 31:-0.20108834 32:-0.16073692 33:-0.18338262 34:-0.16487801 35:-0.27398148 36:-0.30811864 37:-0.39074841 38:-0.11907394 39:-0.21418162 40:-0.20511942 41:-0.13776088 42:-0.16252463 43:-0.2478133 44:-0.17397934 45:-0.31722111 46:-0.15619448 47:-0.066107452 48:-0.14383133 49:-0.22159693 50:0.84064686 51:-0.26362848 52:-0.52965069 53:0.2874307 54:2.0223563 55:-0.084064938 56:-0.24923062 57:-0.46367222 #
0.017839103840643990434022825297689 1:-0.32373646 2:-0.17667121 3:-0.50017285 4:-0.098842546 5:-0.44537586 6:-0.34561899 7:-0.26157999 8:-0.31560028 9:-0.30961666 10:-0.41393355 11:-0.22640149 12:-0.60592264 13:-0.21933696 14:-0.16083114 15:-0.15391792 16:-0.30765641 17:-0.37343216 18:-0.36310151 19:2.8369055 20:-0.14419276 21:-0.57808203 22:-0.062323686 23:-0.26375422 24:34.238995 25:-0.40743604 26:-0.4047187 27:-0.27057403 28:-0.30796358 29:-0.16733444 30:-0.27352092 31:-0.20108834 32:-0.16073692 33:-0.18338262 34:-0.16487801 35:-0.27398148 36:-0.30811864 37:-0.39074841 38:-0.11907394 39:-0.21418162 40:-0.20511942 41:-0.13776088 42:-0.16252463 43:-0.2478133 44:-0.17397934 45:-0.31722111 46:-0.15619448 47:-0.066107452 48:-0.14383133 49:-0.22159693 50:-0.64531434 51:-0.26362848 52:1.0324734 53:-0.34909117 54:-0.28615856 55:-0.060371742 56:-0.22237784 57:-0.56220824 #
-0.014546123586555159690192340349313 1:-0.32373646 2:-0.17667121 3:-0.50017285 4:-0.098842546 5:-0.44537586 6:-0.34561899 7:-0.26157999 8:-0.31560028 9:-0.30961666 10:-0.41393355 11:-0.22640149 12:-0.60592264 13:-0.21933696 14:-0.16083114 15:-0.15391792 16:-0.30765641 17:-0.37343216 18:-0.36310151 19:2.3065922 20:-0.14419276 21:-0.57808203 22:-0.062323686 23:-0.26375422 24:-0.25234732 25:-0.40743604 26:-0.4047187 27:-0.27057403 28:-0.30796358 29:-0.16733444 30:-0.27352092 31:-0.20108834 32:-0.16073692 33:-0.18338262 34:-0.16487801 35:-0.27398148 36:-0.30811864 37:-0.39074841 38:-0.11907394 39:-0.21418162 40:-0.20511942 41:-0.13776088 42:-0.16252463 43:-0.2478133 44:-0.17397934 45:2.0253708 46:5.3662381 47:-0.066107452 48:-0.14383133 49:-0.22159693 50:-0.64531434 51:-0.26362848 52:-0.52965069 53:-0.34909117 54:-0.28615856 55:-0.097193442 56:-0.3029362 57:-0.57713795 #
0.017839103840643990434022825297689 1:-0.32373646 2:-0.17667121 3:-0.50017285 4:-0.098842546 5:0.89291817 6:-0.34561899 7:-0.26157999 8:-0.31560028 9:-0.30961666 10:-0.41393355 11:-0.22640149 12:-0.60592264 13:-0.21933696 14:-0.16083114 15:-0.15391792 16:-0.30765641 17:-0.37343216 18:-0.36310151 19:-0.88086981 20:-0.14419276 21:-0.57808203 22:-0.062323686 23:-0.26375422 24:-0.25234732 25:-0.40743604 26:-0.4047187 27:-0.27057403 28:-0.30796358 29:-0.16733444 30:-0.27352092 31:-0.20108834 32:-0.16073692 33:-0.18338262 34:-0.16487801 35:-0.27398148 36:-0.30811864 37:11.859282 38:-0.11907394 39:-0.21418162 40:-0.20511942 41:-0.13776088 42:-0.16252463 43:-0.2478133 44:-0.17397934 45:-0.31722111 46:-0.15619448 47:-0.066107452 48:-0.14383133 49:-0.22159693 50:-0.24542265 51:-0.26362848 52:-0.52965069 53:0.16479804 54:-0.28615856 55:0.026731698 56:-0.034408323 57:0.0051203761 #
-0.017839103840643990434022825297689 1:-0.32373646 2:-0.17667121 3:-0.50017285 4:-0.098842546 5:-0.44537586 6:-0.34561899 7:-0.26157999 8:-0.31560028 9:-0.30961666 10:-0.41393355 11:-0.22640149 12:-0.60592264 13:-0.21933696 14:-0.16083114 15:-0.15391792 16:-0.30765641 17:-0.37343216 18:-0.36310151 19:-0.88086981 20:-0.14419276 21:-0.57808203 22:-0.062323686 23:-0.26375422 24:-0.25234732 25:-0.40743604 26:-0.4047187 27:-0.27057403 28:-0.30796358 29:-0.16733444 30:-0.27352092 31:-0.20108834 32:-0.16073692 33:-0.18338262 34:-0.16487801 35:-0.27398148 36:-0.30811864 37:-0.39074841 38:-0.11907394 39:-0.21418162 40:-0.20511942 41:-0.13776088 42:-0.16252463 43:-0.2478133 44:-0.17397934 45:-0.31722111 46:-0.15619448 47:-0.066107452 48:-0.14383133 49:-0.034788474 50:-0.54534143 51:0.091692224 52:-0.46565306 53:-0.22061887 54:0.17978022 55:-0.044789929 56:-0.28503433 57:16.986162 #
0.017839103840643990434022825297689 1:-0.32373646 2:0.79773051 3:-0.50017285 4:-0.098842546 5:2.2444627 6:-0.34561899 7:-0.26157999 8:1.5121536 9:-0.30961666 10:2.4091713 11:-0.22640149 12:0.20009504 13:-0.21933696 14:-0.16083114 15:-0.15391792 16:0.22939584 17:-0.37343216 18:-0.36310151 19:1.1566497 20:-0.14419276 21:0.54338974 22:-0.062323686 23:6.9076004 24:1.8192047 25:-0.40743604 26:-0.4047187 27:-0.27057403 28:-0.30796358 29:-0.16733444 30:-0.27352092 31:-0.20108834 32:-0.16073692 33:-0.18338262 34:-0.16487801 35:-0.27398148 36:-0.30811864 37:-0.39074841 38:-0.11907394 39:-0.21418162 40:-0.20511942 41:-0.13776088 42:-0.16252463 43:-0.2478133 44:-0.17397934 45:0.011563725 46:-0.15619448 47:-0.066107452 48:-0.14383133 49:-0.22159693 50:-0.64531434 51:-0.26362848 52:-0.52965069 53:1.2392937 54:-0.28615856 55:-0.05119947 56:-0.025457395 57:-0.14119069 #
0.017839103840643990434022825297689 1:-0.32373646 2:0.18421832 3:0.073635042 4:-0.098842546 5:0.36290073 6:1.018189 7:-0.26157999 8:-0.31560028 9:-0.30961666 10:0.28600982 11:1.1232833 12:-0.30739757 13:-0.21933696 14:-0.16083114 15:-0.15391792 16:0.92756373 17:-0.37343216 18:-0.36310151 19:-0.54035282 20:-0.14419276 21:-0.57808203 22:-0.062323686 23:-0.26375422 24:-0.25234732 25:-0.40743604 26:-0.4047187 27:-0.27057403 28:-0.30796358 29:-0.16733444 30:6.89463 31:-0.20108834 32:-0.16073692 33:-0.18338262 34:-0.16487801 35:-0.27398148 36:-0.30811864 37:-0.39074841 38:-0.11907394 39:-0.21418162 40:-0.20511942 41:-0.13776088 42:-0.16252463 43:-0.2478133 44:0.48187208 45:-0.31722111 46:-0.15619448 47:-0.066107452 48:-0.14383133 49:-0.22159693 50:-0.21815731 51:-0.26362848 52:-0.52965069 53:-0.34909117 54:-0.28615856 55:-0.074428529 56:0.010346321 57:-0.0038374439 #
-0.017839103840643990434022825297689 1:-0.32373646 2:-0.17667121 3:-0.50017285 4:-0.098842546 5:-0.44537586 6:-0.34561899 7:4.5426383 8:9.828434 9:-0.30961666 10:-0.41393355 11:-0.22640149 12:-0.60592264 13:-0.21933696 14:-0.16083114 15:-0.15391792 16:-0.30765641 17:-0.37343216 18:-0.36310151 19:-0.88086981 20:-0.14419276 21:-0.57808203 22:-0.062323686 23:-0.26375422 24:-0.25234732 25:-0.40743604 26:-0.4047187 27:-0.27057403 28:-0.30796358 29:-0.16733444 30:-0.27352092 31:-0.20108834 32:-0.16073692 33:-0.18338262 34:-0.16487801 35:-0.27398148 36:-0.30811864 37:-0.39074841 38:-0.11907394 39:-0.21418162 40:-0.20511942 41:-0.13776088 42:-0.16252463 43:-0.2478133 44:-0.17397934 45:-0.31722111 46:-0.15619448 47:-0.066107452 48:-0.14383133 49:-0.22159693 50:2.3765945 51:-0.26362848 52:-0.52965069 53:3.5342762 54:-0.28615856 55:-0.020721 56:-0.10601576 57:-0.44575658 #
0.017839103840643990434022825297689 1:-0.32373646 2:-0.17667121 3:-0.50017285 4:-0.098842546 5:-0.44537586 6:-0.34561899 7:-0.26157999 8:-0.31560028 9:-0.30961666 10:-0.41393355 11:-0.22640149 12:-0.60592264 13:-0.21933696 14:-0.16083114 15:-0.15391792 16:-0.30765641 17:-0.37343216 18:-0.36310151 19:6.0969367 20:-0.14419276 21:-0.57808203 22:-0.062323686 23:-0.26375422 24:64.48365 25:-0.40743604 26:-0.4047187 27:-0.27057403 28:-0.30796358 29:-0.16733444 30:-0.27352092 31:-0.20108834 32:-0.16073692 33:-0.18338262 34:-0.16487801 35:-0.27398148 36:-0.30811864 37:-0.39074841 38:-0.11907394 39:-0.21418162 40:-0.20511942 41:-0.13776088 42:-0.16252463 43:-0.2478133 44:-0.17397934 45:-0.31722111 46:-0.15619448 47:-0.066107452 48:-0.14383133 49:-0.22159693 50:-0.64531434 51:-0.26362848 52:-0.52965069 53:-0.34909117 54:-0.28615856 55:-0.099646755 56:-0.32083806 57:-0.63088483 #
0.017839103840643990434022825297689 1:-0.32373646 2:-0.17667121 3:-0.50017285 4:-0.098842546 5:-0.44537586 6:-0.34561899 7:-0.26157999 8:-0.31560028 9:-0.30961666 10:3.1091146 11:-0.22640149 12:0.89665353 13:-0.21933696 14:-0.16083114 15:-0.15391792 16:-0.30765641 17:-0.37343216 18:-0.36310151 19:3.3448899 20:-0.14419276 21:0.46724042 22:-0.062323686 23:-0.26375422 24:-0.25234732 25:-0.40743604 26:-0.4047187 27:-0.27057403 28:-0.30796358 29:-0.16733444 30:-0.27352092 31:-0.20108834 32:-0.16073692 33:-0.18338262 34:-0.16487801 35:-0.27398148 36:-0.30811864 37:-0.39074841 38:-0.11907394 39:-0.21418162 40:-0.20511942 41:-0.13776088 42:-0.16252463 43:-0.2478133 44:-0.17397934 45:-0.31722111 46:-0.15619448 47:-0.066107452 48:-0.14383133 49:-0.22159693 50:-0.64531434 51:-0.26362848 52:-0.52965069 53:-0.34909117 54:-0.28615856 55:-0.060548555 56:-0.19552505 57:-0.52936292 #
-0.017839103840643990434022825297689 1:-0.32373646 2:-0.17667121 3:-0.50017285 4:-0.098842546 5:-0.44537586 6:-0.34561899 7:-0.26157999 8:-0.31560028 9:-0.30961666 10:-0.41393355 11:-0.22640149 12:-0.60592264 13:-0.21933696 14:-0.16083114 15:-0.15391792 16:-0.30765641 17:-0.37343216 18:-0.36310151 19:5.3210044 20:-0.14419276 21:-0.57808203 22:-0.062323686 23:-0.26375422 24:-0.25234732 25:-0.40743604 26:-0.4047187 27:-0.27057403 28:-0.30796358 29:-0.16733444 30:-0.27352092 31:-0.20108834 32:-0.16073692 33:-0.18338262 34:-0.16487801 35:-0.27398148 36:-0.30811864 37:-0.39074841 38:-0.11907394 39:-0.21418162 40:-0.20511942 41:-0.13776088 42:-0.16252463 43:-0.2478133 44:-0.17397934 45:-0.31722111 46:-0.15619448 47:-0.066107452 48:-0.14383133 49:-0.22159693 50:-0.64531434 51:-0.26362848 52:-0.52965069 53:-0.34909117 54:-0.28615856 55:-0.094121285 56:-0.31188715 57:-0.62192702 #
-0.017839103840643990434022825297689 1:-0.32373646 2:3.0713346 3:-0.50017285 4:-0.098842546 5:-0.44537586 6:-0.34561899 7:-0.26157999 8:-0.31560028 9:-0.30961666 10:5.8855567 11:-0.22640149 12:-0.60592264 13:-0.21933696 14:-0.16083114 15:-0.15391792 16:-0.30765641 17:-0.37343216 18:-0.36310151 19:3.6407487 20:-0.14419276 21:-0.57808203 22:-0.062323686 23:-0.26375422 24:-0.25234732 25:-0.40743604 26:-0.4047187 27:-0.27057403 28:-0.30796358 29:-0.16733444 30:-0.27352092 31:-0.20108834 32:-0.16073692 33:-0.18338262 34:-0.16487801 35:-0.27398148 36:-0.30811864 37:-0.39074841 38:-0.11907394 39:-0.21418162 40:-0.20511942 41:-0.13776088 42:-0.16252463 43:-0.2478133 44:-0.17397934 45:1.9020765 46:-0.15619448 47:-0.066107452 48:-0.14383133 49:-0.22159693 50:-0.64531434 51:-0.26362848 52:-0.52965069 53:-0.34909117 54:-0.28615856 55:-0.065654084 56:-0.14181948 57:-0.53832072 #
-0.017839103840643990434022825297689 1:-0.32373646 2:-0.17667121 3:-0.50017285 4:-0.098842546 5:-0.44537586 6:-0.34561899 7:-0.26157999 8:-0.31560028 9:-0.30961666 10:11.858407 11:-0.22640149 12:-0.60592264 13:-0.21933696 14:-0.16083114 15:-0.15391792 16:-0.30765641 17:-0.37343216 18:-0.36310151 19:2.0553911 20:-0.14419276 21:-0.57808203 22:-0.062323686 23:-0.26375422 24:-0.25234732 25:-0.40743604 26:-0.4047187 27:-0.27057403 28:-0.30796358 29:-0.16733444 30:-0.27352092 31:-0.20108834 32:-0.16073692 33:-0.18338262 34:-0.16487801 35:-0.27398148 36:-0.30811864 37:-0.39074841 38:-0.11907394 39:-0.21418162 40:-0.20511942 41:-0.13776088 42:-0.16252463 43:-0.2478133 44:-0.17397934 45:-0.31722111 46:-0.15619448 47:-0.066107452 48:-0.14383133 49:-0.22159693 50:-0.64531434 51:-0.26362848 52:-0.52965069 53:-0.34909117 54:-0.28615856 55:-0.084926911 56:-0.3029362 57:-0.62192702 #
0.017839103840643990434022825297689 1:-0.32373646 2:-0.17667121 3:-0.50017285 4:-0.098842546 5:-0.44537586 6:-0.34561899 7:-0.26157999 8:-0.31560028 9:-0.30961666 10:-0.41393355 11:-0.22640149 12:-0.60592264 13:-0.21933696 14:-0.16083114 15:-0.15391792 16:-0.30765641 17:-0.37343216 18:-0.36310151 19:-0.88086981 20:-0.14419276 21:2.0802214 22:-0.062323686 23:-0.26375422 24:-0.25234732 25:-0.40743604 26:-0.4047187 27:-0.27057403 28:-0.30796358 29:-0.16733444 30:-0.27352092 31:-0.20108834 32:-0.16073692 33:-0.18338262 34:-0.16487801 35:-0.27398148 36:-0.30811864 37:-0.39074841 38:-0.11907394 39:-0.21418162 40:-0.20511942 41:-0.13776088 42:-0.16252463 43:-0.2478133 44:-0.17397934 45:-0.31722111 46:-0.15619448 47:-0.066107452 48:-0.14383133 49:-0.22159693 50:-0.64531434 51:-0.26362848 52:-0.52965069 53:6.7694426 54:-0.28615856 55:-0.036103897 56:-0.23132877 57:-0.54429257 #
0.017839103840643990434022825297689 1:-0.32373646 2:0.16015902 3:-0.50017285 4:-0.098842546 5:1.4096851 6:-0.34561899 7:0.34435743 8:0.96382743 9:-0.30961666 10:0.89262736 11:-0.22640149 12:0.22994754 13:-0.21933696 14:-0.16083114 15:-0.15391792 16:0.068280168 17:-0.37343216 18:-0.36310151 19:0.056947391 20:-0.14419276 21:0.77876037 22:-0.062323686 23:-0.26375422 24:-0.25234732 25:-0.40743604 26:-0.4047187 27:-0.27057403 28:-0.30796358 29:-0.16733444 30:-0.27352092 31:-0.20108834 32:-0.16073692 33:1.9745425 34:-0.16487801 35:-0.27398148 36:-0.30811864 37:-0.39074841 38:4.4479079 39:-0.21418162 40:-0.20511942 41:-0.13776088 42:-0.16252463 43:-0.2478133 44:0.43814865 45:-0.087071724 46:-0.15619448 47:-0.066107452 48:-0.14383133 49:-0.22159693 50:-0.022755677 51:1.0080457 52:-0.43074524 53:-0.34909117 54:-0.28615856 55:0.0027953815 56:0.69061697 57:1.1636651 #
-0.017839103840643990434022825297689 1:-0.32373646 2:-0.17667121 3:1.8906934 4:-0.098842546 5:0.37615114 6:-0.34561899 7:-0.26157999 8:-0.31560028 9:-0.30961666 10:-0.41393355 11:-0.22640149 12:0.63793182 13:-0.21933696 14:-0.16083114 15:-0.15391792 16:2.2164891 17:-0.37343216 18:-0.36310151 19:1.5753181 20:-0.14419276 21:-0.57808203 22:-0.062323686 23:-0.26375422 24:6.2212524 25:-0.40743604 26:-0.4047187 27:-0.27057403 28:-0.30796358 29:-0.16733444 30:-0.27352092 31:-0.20108834 32:-0.16073692 33:-0.18338262 34:-0.16487801 35:-0.27398148 36:-0.30811864 37:-0.39074841 38:-0.11907394 39:-0.21418162 40:-0.20511942 41:-0.13776088 42:-0.16252463 43:-0.2478133 44:-0.17397934 45:-0.31722111 46:-0.15619448 47:-0.066107452 48:-0.14383133 49:-0.22159693 50:0.84064686 51:-0.26362848 52:-0.52965069 53:0.2874307 54:2.0223563 55:-0.084064938 56:-0.24923062 57:-0.46367222 #
-0.017839103840643990434022825297689 1:-0.32373646 2:-0.17667121 3:-0.50017285 4:-0.098842546 5:-0.44537586 6:-0.34561899 7:4.5426383 8:9.828434 9:-0.30961666 10:-0.41393355 11:-0.22640149 12:-0.60592264 13:-0.21933696 14:-0.16083114 15:-0.15391792 16:-0.30765641 17:-0.37343216 18:-0.36310151 19:-0.88086981 20:-0.14419276 21:-0.57808203 22:-0.062323686 23:-0.26375422 24:-0.25234732 25:-0.40743604 26:-0.4047187 27:-0.27057403 28:-0.30796358 29:-0.16733444 30:-0.27352092 31:-0.20108834 32:-0.16073692 33:-0.18338262 34:-0.16487801 35:-0.27398148 36:-0.30811864 37:-0.39074841 38:-0.11907394 39:-0.21418162 40:-0.20511942 41:-0.13776088 42:-0.16252463 43:-0.2478133 44:-0.17397934 45:-0.31722111 46:-0.15619448 47:-0.066107452 48:-0.14383133 49:-0.22159693 50:2.3765945 51:-0.26362848 52:-0.52965069 53:3.5342762 54:-0.28615856 55:-0.020721 56:-0.10601576 57:-0.44575658 #
-0.017839103840643990434022825297689 1:-0.32373646 2:-0.17667121 3:-0.50017285 4:-0.098842546 5:-0.44537586 6:-0.34561899 7:-0.26157999 8:-0.31560028 9:-0.30961666 10:-0.41393355 11:-0.22640149 12:-0.60592264 13:-0.21933696 14:-0.16083114 15:-0.15391792 16:-0.30765641 17:-0.37343216 18:-0.36310151 19:6.9342732 20:-0.14419276 21:-0.57808203 22:-0.062323686 23:-0.26375422 24:-0.25234732 25:-0.40743604 26:-0.4047187 27:-0.27057403 28:-0.30796358 29:-0.16733444 30:-0.27352092 31:-0.20108834 32:-0.16073692 33:-0.18338262 34:-0.16487801 35:-0.27398148 36:-0.30811864 37:-0.39074841 38:-0.11907394 39:-0.21418162 40:-0.20511942 41:-0.13776088 42:-0.16252463 43:-0.2478133 44:-0.17397934 45:-0.31722111 46:-0.15619448 47:-0.066107452 48:-0.14383133 49:-0.22159693 50:-0.64531434 51:-0.26362848 52:-0.52965069 53:-0.34909117 54:-0.28615856 55:-0.087026589 56:-0.28503433 57:-0.60401142 #
-0.017839103840643990434022825297689 1:-0.32373646 2:-0.17667121 3:4.797987 4:-0.098842546 5:-0.44537586 6:-0.34561899 7:-0.26157999 8:-0.31560028 9:-0.30961666 10:-0.41393355 11:-0.22640149 12:-0.60592264 13:-0.21933696 14:-0.16083114 15:-0.15391792 16:-0.30765641 17:-0.37343216 18:-0.36310151 19:3.7691405 20:-0.14419276 21:-0.57808203 22:-0.062323686 23:-0.26375422 24:-0.25234732 25:-0.40743604 26:-0.4047187 27:-0.27057403 28:-0.30796358 29:-0.16733444 30:-0.27352092 31:-0.20108834 32:-0.16073692 33:-0.18338262 34:-0.16487801 35:-0.27398148 36:-0.30811864 37:-0.39074841 38:-0.11907394 39:-0.21418162 40:-0.20511942 41:-0.13776088 42:-0.16252463 43:-0.2478133 44:-0.17397934 45:-0.31722111 46:-0.15619448 47:-0.066107452 48:-0.14383133 49:-0.22159693 50:-0.64531434 51:-0.26362848 52:-0.52965069 53:-0.34909117 54:-0.28615856 55:-0.094916955 56:-0.29398528 57:-0.58609575 #
-0.0021306144789723403809578172740657 1:-0.32373646 2:-0.17667121 3:4.53021 4:-0.098842546 5:-0.44537586 6:-0.34561899 7:-0.26157999 8:-0.31560028 9:-0.30961666 10:-0.41393355 11:-0.22640149 12:2.011147 13:-0.21933696 14:-0.16083114 15:-0.15391792 16:-0.30765641 17:-0.37343216 18:-0.36310151 19:0.58726066 20:-0.14419276 21:-0.57808203 22:-0.062323686 23:-0.26375422 24:-0.25234732 25:0.8953234 26:2.3115618 27:0.55965042 28:-0.30796358 29:-0.16733444 30:-0.27352092 31:-0.20108834 32:-0.16073692 33:-0.18338262 34:-0.16487801 35:-0.27398148 36:-0.30811864 37:-0.39074841 38:-0.11907394 39:-0.21418162 40:-0.20511942 41:-0.13776088 42:-0.16252463 43:-0.2478133 44:-0.17397934 45:-0.31722111 46:-0.15619448 47:-0.066107452 48:-0.14383133 49:-0.22159693 50:-0.64531434 51:-0.26362848 52:-0.52965069 53:-0.34909117 54:-0.28615856 55:-0.099646755 56:-0.32083806 57:-0.61296922 #
-0.017839103840643990434022825297689 1:-0.32373646 2:-0.17667121 3:0.13101584 4:-0.098842546 5:-0.44537586 6:1.8819339 7:-0.26157999 8:5.7159877 9:0.44413912 10:11.531766 11:-0.22640149 12:-0.60592264 13:-0.21933696 14:4.5509105 15:-0.15391792 16:-0.30765641 17:0.44325367 18:-0.36310151 19:-0.69665569 20:-0.14419276 21:-0.57808203 22:-0.062323686 23:-0.26375422 24:-0.25234732 25:-0.40743604 26:-0.4047187 27:-0.27057403 28:-0.30796358 29:-0.16733444 30:-0.27352092 31:-0.20108834 32:-0.16073692 33:-0.18338262 34:-0.16487801 35:0.046227954 36:-0.30811864 37:-0.39074841 38:-0.11907394 39:-0.21418162 40:-0.20511942 41:-0.13776088 42:0.015877258 43:-0.2478133 44:-0.17397934 45:-0.31722111 46:0.4832451 47:-0.066107452 48:-0.14383133 49:-0.22159693 50:-0.32721868 51:0.16649659 52:-0.52965069 53:-0.34909117 54:0.20095925 55:-0.087446526 56:-0.2402797 57:-0.19195166 #
-0.017839103840643990434022825297689 1:-0.32373646 2:-0.17667121 3:-0.50017285 4:-0.098842546 5:-0.44537586 6:-0.34561899 7:-0.26157999 8:-0.31560028 9:-0.30961666 10:9.7119141 11:-0.22640149 12:1.5534087 13:-0.21933696 14:-0.16083114 15:-0.15391792 16:-0.30765641 17:-0.37343216 18:-0.36310151 19:-0.88086981 20:-0.14419276 21:-0.57808203 22:-0.062323686 23:-0.26375422 24:-0.25234732 25:-0.40743604 26:-0.4047187 27:-0.27057403 28:-0.30796358 29:-0.16733444 30:-0.27352092 31:-0.20108834 32:-0.16073692 33:-0.18338262 34:-0.16487801 35:-0.27398148 36:-0.30811864 37:-0.39074841 38:-0.11907394 39:-0.21418162 40:-0.20511942 41:-0.13776088 42:-0.16252463 43:-0.2478133 44:-0.17397934 45:-0.31722111 46:-0.15619448 47:-0.066107452 48:-0.14383133 49:-0.22159693 50:-0.64531434 51:-0.26362848 52:-0.52965069 53:-0.34909117 54:-0.28615856 55:-0.099646755 56:-0.32083806 57:-0.61595517 #
0.017839103840643990434022825297689 1:-0.32373646 2:-0.17667121 3:0.85783917 4:-0.098842546 5:0.49540508 6:-0.34561899 7:-0.26157999 8:-0.31560028 9:-0.30961666 10:-0.41393355 11:-0.22640149 12:-0.60592264 13:-0.21933696 14:-0.16083114 15:-0.15391792 16:0.64561135 17:-0.37343216 18:2.3383594 19:0.3193129 20:-0.14419276 21:0.91029096 22:-0.062323686 23:-0.26375422 24:-0.25234732 25:-0.40743604 26:-0.4047187 27:-0.27057403 28:-0.30796358 29:-0.16733444 30:-0.27352092 31:-0.20108834 32:-0.16073692 33:-0.18338262 34:-0.16487801 35:-0.27398148 36:-0.30811864 37:-0.39074841 38:-0.11907394 39:-0.21418162 40:-0.20511942 41:-0.13776088 42:-0.16252463 43:-0.2478133 44:-0.17397934 45:-0.31722111 46:-0.15619448 47:-0.066107452 48:-0.14383133 49:-0.22159693 50:-0.64531434 51:4.5238504 52:-0.1573008 53:-0.34909117 54:-0.28615856 55:-0.082429402 56:-0.23132877 57:-0.32333302 #
-0.017839103840643990434022825297689 1:8.373168 2:-0.17667121 3:-0.50017285 4:-0.098842546 5:-0.44537586 6:-0.34561899 7:-0.26157999 8:-0.31560028 9:-0.30961666 10:-0.41393355 11:8.7714968 12:1.3842444 13:-0.21933696 14:-0.16083114 15:-0.15391792 16:-0.30765641 17:-0.37343216 18:-0.36310151 19:0.23557924 20:-0.14419276 21:4.9600501 22:-0.062323686 23:-0.26375422 24:-0.25234732 25:-0.40743604 26:-0.4047187 27:-0.27057403 28:-0.30796358 29:-0.16733444 30:-0.27352092 31:-0.20108834 32:-0.16073692 33:-0.18338262 34:-0.16487801 35:-0.27398148 36:-0.30811864 37:-0.39074841 38:-0.11907394 39:-0.21418162 40:-0.20511942 41:-0.13776088 42:-0.16252463 43:-0.2478133 44:-0.17397934 45:-0.31722111 46:-0.15619448 47:-0.066107452 48:-0.14383133 49:-0.22159693 50:-0.64531434 51:-0.26362848 52:-0.52965069 53:-0.34909117 54:-0.28615856 55:0.008387153 56:-0.070212044 57:-0.4786019 #
-0.017839103840643990434022825297689 1:-0.32373646 2:0.26842588 3:0.20752355 4:-0.098842546 5:-0.32612196 6:0.063523374 7:-0.26157999 8:1.3750721 9:-0.30961666 10:-0.41393355 11:-0.22640149 12:-0.32729927 13:0.62587357 14:-0.16083114 15:-0.15391792 16:0.8201533 17:-0.15069966 18:0.69481319 19:0.63750088 20:-0.14419276 21:0.91721368 22:-0.062323686 23:0.53306293 24:-0.25234732 25:-0.40743604 26:-0.4047187 27:-0.27057403 28:-0.30796358 29:-0.16733444 30:-0.27352092 31:-0.20108834 32:-0.16073692 33:-0.18338262 34:-0.16487801 35:-0.27398148 36:-0.30811864 37:-0.17243105 38:-0.11907394 39:-0.21418162 40:-0.20511942 41:-0.13776088 42:-0.16252463 43:-0.2478133 44:-0.17397934 45:-0.16926792 46:-0.15619448 47:-0.066107452 48:-0.14383133 49:-0.22159693 50:-0.39083782 51:-0.26362848 52:-0.11657503 53:0.065523982 54:0.010347932 55:-0.07900361 56:-0.15972133 57:0.50675833 #
-0.017839103840643990434022825297689 1:-0.32373646 2:-0.17667121 3:-0.50017285 4:-0.098842546 5:-0.44537586 6:-0.34561899 7:-0.26157999 8:-0.31560028 9:3.2236135 10:-0.41393355 11:-0.22640149 12:0.14039002 13:-0.21933696 14:-0.16083114 15:-0.15391792 16:-0.30765641 17:-0.37343216 18:-0.36310151 19:0.37513536 20:-0.14419276 21:-0.57808203 22:-0.062323686 23:-0.26375422 24:-0.25234732 25:-0.40743604 26:-0.4047187 27:-0.27057403 28:-0.30796358 29:-0.16733444 30:-0.27352092 31:-0.20108834 32:-0.16073692 33:-0.18338262 34:-0.16487801 35:-0.27398148 36:-0.30811864 37:-0.39074841 38:-0.11907394 39:-0.21418162 40:-0.20511942 41:-0.13776088 42:-0.16252463 43:-0.2478133 44:-0.17397934 45:0.29925045 46:-0.15619448 47:-0.066107452 48:-0.14383133 49:-0.22159693 50:0.54981655 51:-0.26362848 52:-0.52965069 53:-0.34909117 54:-0.28615856 55:-0.095756821 56:-0.3029362 57:-0.57713795 #
-0.017839103840643990434022825297689 1:8.373168 2:-0.17667121 3:-0.50017285 4:-0.098842546 5:-0.44537586 6:-0.34561899 7:-0.26157999 8:-0.31560028 9:-0.30961666 10:-0.41393355 11:8.7714968 12:1.3842444 13:-0.21933696 14:-0.16083114 15:-0.15391792 16:-0.30765641 17:-0.37343216 18:-0.36310151 19:0.23557924 20:-0.14419276 21:4.9600501 22:-0.062323686 23:-0.26375422 24:-0.25234732 25:-0.40743604 26:-0.4047187 27:-0.27057403 28:-0.30796358 29:-0.16733444 30:-0.27352092 31:-0.20108834 32:-0.16073692 33:-0.18338262 34:-0.16487801 35:-0.27398148 36:-0.30811864 37:-0.39074841 38:-0.11907394 39:-0.21418162 40:-0.20511942 41:-0.13776088 42:-0.16252463 43:-0.2478133 44:-0.17397934 45:-0.31722111 46:-0.15619448 47:-0.066107452 48:-0.14383133 49:-0.22159693 50:-0.64531434 51:-0.26362848 52:-0.52965069 53:-0.34909117 54:-0.28615856 55:0.008387153 56:-0.070212044 57:-0.4786019 #
-0.017839103840643990434022825297689 1:-0.32373646 2:-0.17667121 3:-0.50017285 4:-0.098842546 5:-0.44537586 6:-0.34561899 7:-0.26157999 8:-0.31560028 9:-0.30961666 10:1.5692393 11:-0.22640149 12:-0.60592264 13:-0.21933696 14:-0.16083114 15:10.482357 16:-0.30765641 17:-0.37343216 18:-0.36310151 19:0.54818499 20:-0.14419276 21:0.59877104 22:-0.062323686 23:-0.26375422 24:-0.25234732 25:-0.40743604 26:-0.4047187 27:-0.27057403 28:-0.30796358 29:-0.16733444 30:-0.27352092 31:-0.20108834 32:-0.16073692 33:-0.18338262 34:-0.16487801 35:-0.27398148 36:-0.30811864 37:-0.39074841 38:-0.11907394 39:-0.21418162 40:-0.20511942 41:-0.13776088 42:-0.16252463 43:-0.2478133 44:-0.17397934 45:-0.31722111 46:-0.15619448 47:-0.066107452 48:-0.14383133 49:2.3172998 50:-0.64531434 51:-0.26362848 52:-0.096212141 53:-0.34909117 54:-0.28615856 55:-0.098762676 56:-0.31188715 57:-0.55922228 #
-0.017839103840643990434022825297689 1:-0.32373646 2:-0.17667121 3:3.9372749 4:-0.098842546 5:-0.44537586 6:-0.34561899 7:-0.26157999 8:-0.31560028 9:-0.30961666 10:4.9989619 11:-0.22640149 12:-0.60592264 13:-0.21933696 14:-0.16083114 15:7.103776 16:-0.30765641 17:-0.37343216 18:-0.36310151 19:0.41421109 20:-0.14419276 21:-0.57808203 22:-0.062323686 23:-0.26375422 24:-0.25234732 25:-0.40743604 26:1.9913919 27:-0.27057403 28:-0.30796358 29:-0.16733444 30:-0.27352092 31:-0.20108834 32:-0.16073692 33:-0.18338262 34:-0.16487801 35:-0.27398148 36:-0.30811864 37:-0.39074841 38:-0.11907394 39:-0.21418162 40:-0.20511942 41:-0.13776088 42:-0.16252463 43:3.4819787 44:-0.17397934 45:0.63625491 46:-0.15619448 47:-0.066107452 48:-0.14383133 49:-0.22159693 50:0.28170732 51:-0.26362848 52:-0.52965069 53:-0.34909117 54:-0.28615856 55:-0.083070353 56:-0.23132877 57:-0.53234881 #
-0.017839103840643990434022825297689 1:-0.32373646 2:-0.17667121 3:-0.50017285 4:-0.098842546 5:-0.44537586 6:-0.34561899 7:-0.26157999 8:-0.31560028 9:-0.30961666 10:-0.41393355 11:-0.22640149 12:-0.60592264 13:-0.21933696 14:-0.16083114 15:-0.15391792 16:0.47106934 17:-0.37343216 18:-0.36310151 19:-0.88086981 20:-0.14419276 21:-0.57808203 22:-0.062323686 23:-0.26375422 24:-0.25234732 25:-0.40743604 26:-0.4047187 27:0.19031103 28:0.18731068 29:-0.16733444 30:0.95651686 31:-0.20108834 32:-0.16073692 33:-0.18338262 34:-0.16487801 35:-0.27398148 36:-0.30811864 37:1.0161858 38:-0.11907394 39:-0.21418162 40:-0.20511942 41:-0.13776088 42:-0.16252463 43:-0.2478133 44:-0.17397934 45:-0.31722111 46:-0.15619448 47:-0.066107452 48:-0.14383133 49:-0.22159693 50:-0.56351835 51:-0.26362848 52:-0.52965069 53:-0.34909117 54:-0.28615856 55:5.4258189 56:12.989194 57:3.8599689 #
-0.017839103840643990434022825297689 1:-0.32373646 2:0.16015902 3:0.035381183 4:-0.098842546 5:0.69416159 6:-0.34561899 7:-0.26157999 8:-0.31560028 9:-0.30961666 10:0.23934692 11:1.0333042 12:-0.60592264 13:-0.21933696 14:-0.16083114 15:-0.15391792 16:-0.30765641 17:-0.37343216 18:-0.36310151 19:0.72123456 20:-0.14419276 21:0.61261636 22:-0.062323686 23:-0.26375422 24:-0.25234732 25:-0.26873922 26:-0.11553293 27:-0.27057403 28:-0.30796358 29:-0.16733444 30:-0.27352092 31:-0.20108834 32:-0.16073692 33:-0.18338262 34:-0.16487801 35:-0.27398148 36:-0.30811864 37:-0.39074841 38:-0.11907394 39:-0.21418162 40:-0.20511942 41:-0.13776088 42:-0.16252463 43:-0.2478133 44:-0.17397934 45:0.15129727 46:-0.15619448 47:-0.066107452 48:-0.14383133 49:-0.22159693 50:-0.022755677 51:-0.26362848 52:-0.52965069 53:-0.34909117 54:-0.28615856 55:-0.078649983 56:-0.19552505 57:-0.17105009 #
0.017839103840643990434022825297689 1:-0.32373646 2:0.18421832 3:0.073635042 4:-0.098842546 5:0.36290073 6:1.018189 7:-0.26157999 8:-0.31560028 9:-0.30961666 10:0.28600982 11:1.1232833 12:-0.30739757 13:-0.21933696 14:-0.16083114 15:-0.15391792 16:0.92756373 17:-0.37343216 18:-0.36310151 19:-0.54035282 20:-0.14419276 21:-0.57808203 22:-0.062323686 23:-0.26375422 24:-0.25234732 25:-0.40743604 26:-0.4047187 27:-0.27057403 28:-0.30796358 29:-0.16733444 30:6.89463 31:-0.20108834 32:-0.16073692 33:-0.18338262 34:-0.16487801 35:-0.27398148 36:-0.30811864 37:-0.39074841 38:-0.11907394 39:-0.21418162 40:-0.20511942 41:-0.13776088 42:-0.16252463 43:-0.2478133 44:0.48187208 45:-0.31722111 46:-0.15619448 47:-0.066107452 48:-0.14383133 49:-0.22159693 50:-0.21815731 51:-0.26362848 52:-0.52965069 53:-0.34909117 54:-0.28615856 55:-0.074428529 56:0.010346321 57:-0.0038374439 #
-0.017839103840643990434022825297689 1:-0.32373646 2:2.6502967 3:-0.50017285 4:-0.098842546 5:4.2187777 6:4.9732318 7:-0.26157999 8:5.03058 9:-0.30961666 10:10.551846 11:-0.22640149 12:-0.60592264 13:-0.21933696 14:-0.16083114 15:-0.15391792 16:1.2632214 17:-0.37343216 18:-0.36310151 19:-0.22774711 20:-0.14419276 21:0.2318698 22:-0.062323686 23:-0.26375422 24:-0.25234732 25:-0.40743604 26:-0.4047187 27:0.098765366 28:-0.30796358 29:-0.16733444 30:-0.27352092 31:-0.20108834 32:-0.16073692 33:-0.18338262 34:-0.16487801 35:-0.27398148 36:-0.30811864 37:-0.39074841 38:-0.11907394 39:-0.21418162 40:-0.20511942 41:-0.13776088 42:-0.16252463 43:-0.2478133 44:-0.17397934 45:0.64447451 46:-0.15619448 47:-0.066107452 48:-0.14383133 49:-0.22159693 50:0.22717664 51:-0.26362848 52:-0.52965069 53:-0.34909117 54:-0.28615856 55:-0.099646755 56:-0.32083806 57:-0.59505355 #
-0.017839103840643990434022825297689 1:-0.32373646 2:-0.17667121 3:1.4125202 4:-0.098842546 5:1.5421895 6:-0.34561899 7:-0.26157999 8:-0.31560028 9:-0.30961666 10:1.9192109 11:2.023073 12:1.3842444 13:-0.21933696 14:-0.16083114 15:-0.15391792 16:-0.30765641 17:-0.37343216 18:-0.36310151 19:2.7475896 20:-0.14419276 21:1.4987175 22:-0.062323686 23:-0.26375422 24:-0.25234732 25:-0.40743604 26:-0.4047187 27:-0.27057403 28:-0.30796358 29:-0.16733444 30:-0.27352092 31:-0.20108834 32:-0.16073692 33:-0.18338262 34:-0.16487801 35:-0.27398148 36:-0.30811864 37:-0.39074841 38:-0.11907394 39:-0.21418162 40:-0.20511942 41:-0.13776088 42:-0.16252463 43:-0.2478133 44:-0.17397934 45:-0.31722111 46:-0.15619448 47:-0.066107452 48:-0.14383133 49:-0.22159693 50:-0.64531434 51:-0.26362848 52:-0.10784808 53:-0.34909117 54:-0.28615856 55:-0.092087917 56:-0.20447598 57:-0.48457378 #
-0.017839103840643990434022825297689 1:-0.32373646 2:0.22030728 3:-0.19414198 4:-0.098842546 5:1.0784242 6:1.1545697 7:0.084669963 8:-0.31560028 9:-0.30961666 10:2.6658173 11:-0.22640149 12:-0.44670928 13:-0.21933696 14:0.98140919 15:0.84714329 16:1.0215479 17:-0.37343216 18:-0.36310151 19:0.68215883 20:-0.14419276 21:1.0210537 22:-0.062323686 23:1.1970773 24:-0.25234732 25:-0.40743604 26:-0.4047187 27:-0.22006607 28:-0.30796358 29:-0.16733444 30:-0.27352092 31:-0.20108834 32:-0.16073692 33:-0.18338262 34:-0.16487801 35:-0.27398148 36:-0.30811864 37:0.79786837 38:-0.11907394 39:-0.21418162 40:-0.20511942 41:-0.13776088 42:-0.16252463 43:-0.2478133 44:-0.17397934 45:-0.045973618 46:-0.15619448 47:-0.066107452 48:-0.14383133 49:-0.22159693 50:-0.072742142 51:-0.26362848 52:-0.30856794 53:0.094722234 54:0.24331732 55:-0.046580181 56:0.001395392 57:0.45002544 #
0.017839103840643990434022825297689 1:-0.32373646 2:-0.17667121 3:-0.50017285 4:-0.098842546 5:-0.44537586 6:-0.34561899 7:-0.26157999 8:-0.31560028 9:-0.30961666 10:-0.41393355 11:-0.22640149 12:-0.60592264 13:-0.21933696 14:-0.16083114 15:-0.15391792 16:-0.30765641 17:-0.37343216 18:-0.36310151 19:0.60400742 20:26.089159 21:0.34263244 22:5.1158714 23:-0.26375422 24:-0.25234732 25:-0.40743604 26:-0.4047187 27:-0.27057403 28:-0.30796358 29:-0.16733444 30:-0.27352092 31:-0.20108834 32:-0.16073692 33:-0.18338262 34:-0.16487801 35:-0.27398148 36:-0.30811864 37:-0.39074841 38:-0.11907394 39:-0.21418162 40:-0.20511942 41:-0.13776088 42:-0.16252463 43:-0.2478133 44:-0.17397934 45:-0.31722111 46:-0.15619448 47:-0.066107452 48:-0.14383133 49:-0.22159693 50:-0.64531434 51:-0.26362848 52:1.5037287 53:-0.34909117 54:9.583272 55:0.081588522 56:0.081953757 57:-0.36215025 #
-0.017839103840643990434022825297689 1:-0.32373646 2:1.7119839 3:1.7568049 4:-0.098842546 5:-0.44537586 6:-0.34561899 7:-0.26157999 8:-0.31560028 9:-0.30961666 10:5.0922875 11:-0.22640149 12:0.17024253 13:-0.21933696 14:-0.16083114 15:-0.15391792 16:-0.30765641 17:-0.37343216 18:-0.36310151 19:-0.66316223 20:-0.14419276 21:-0.57808203 22:24.427036 23:-0.26375422 24:-0.25234732 25:-0.40743604 26:-0.4047187 27:-0.27057403 28:-0.30796358 29:-0.16733444 30:-0.27352092 31:-0.20108834 32:-0.16073692 33:-0.18338262 34:-0.16487801 35:-0.27398148 36:-0.30811864 37:-0.39074841 38:-0.11907394 39:-0.21418162 40:-0.20511942 41:-0.13776088 42:-0.16252463 43:-0.2478133 44:-0.17397934 45:-0.31722111 46:-0.15619448 47:-0.066107452 48:-0.14383133 49:9.5518818 50:0.27716312 51:-0.26362848 52:0.25868386 53:-0.34909117 54:1.1328368 55:0.0039888821 56:-0.061261114 57:0.34850347 #
0.017839103840643990434022825297689 1:6.7642403 2:-0.17667121 3:-0.50017285 4:-0.098842546 5:2.800981 6:-0.34561899 7:-0.26157999 8:-0.31560028 9:-0.30961666 10:-0.41393355 11:-0.22640149 12:-0.60592264 13:-0.21933696 14:-0.16083114 15:-0.15391792 16:0.77987438 17:-0.37343216 18:-0.36310151 19:0.94452435 20:-0.14419276 21:0.5503124 22:-0.062323686 23:-0.26375422 24:-0.25234732 25:-0.40743604 26:-0.4047187 27:-0.27057403 28:-0.30796358 29:-0.16733444 30:-0.27352092 31:-0.20108834 32:-0.16073692 33:-0.18338262 34:-0.16487801 35:-0.27398148 36:-0.30811864 37:1.5741079 38:-0.11907394 39:-0.21418162 40:-0.20511942 41:-0.13776088 42:-0.16252463 43:-0.2478133 44:-0.17397934 45:-0.31722111 46:-0.15619448 47:-0.066107452 48:-0.14383133 49:-0.22159693 50:-0.64531434 51:-0.26362848 52:0.22086707 53:-0.34909117 54:-0.28615856 55:-0.059288751 56:-0.15077041 57:-0.44277063 #
-0.017839103840643990434022825297689 1:-0.32373646 2:1.7119839 3:1.7568049 4:-0.098842546 5:-0.44537586 6:-0.34561899 7:-0.26157999 8:-0.31560028 9:-0.30961666 10:5.0922875 11:-0.22640149 12:0.17024253 13:-0.21933696 14:-0.16083114 15:-0.15391792 16:-0.30765641 17:-0.37343216 18:-0.36310151 19:-0.66316223 20:-0.14419276 21:-0.57808203 22:24.427036 23:-0.26375422 24:-0.25234732 25:-0.40743604 26:-0.4047187 27:-0.27057403 28:-0.30796358 29:-0.16733444 30:-0.27352092 31:-0.20108834 32:-0.16073692 33:-0.18338262 34:-0.16487801 35:-0.27398148 36:-0.30811864 37:-0.39074841 38:-0.11907394 39:-0.21418162 40:-0.20511942 41:-0.13776088 42:-0.16252463 43:-0.2478133 44:-0.17397934 45:-0.31722111 46:-0.15619448 47:-0.066107452 48:-0.14383133 49:9.5518818 50:0.27716312 51:-0.26362848 52:0.25868386 53:-0.34909117 54:1.1328368 55:0.0039888821 56:-0.061261114 57:0.34850347 #
-0.017839103840643990434022825297689 1:-0.32373646 2:-0.17667121 3:-0.50017285 4:-0.098842546 5:-0.44537586 6:-0.34561899 7:-0.26157999 8:1.6035413 9:-0.30961666 10:-0.41393355 11:-0.22640149 12:0.66778433 13:1.0484788 14:-0.16083114 15:-0.15391792 16:-0.30765641 17:0.66598618 18:-0.36310151 19:-0.88086981 20:-0.14419276 21:-0.57808203 22:-0.062323686 23:-0.26375422 24:-0.25234732 25:0.86560267 26:-0.4047187 27:-0.27057403 28:-0.30796358 29:-0.021211967 30:-0.27352092 31:-0.20108834 32:-0.16073692 33:0.032409903 34:-0.16487801 35:-0.27398148 36:0.26791227 37:0.28846115 38:2.164417 39:-0.21418162 40:-0.20511942 41:-0.13776088 42:-0.16252463 43:-0.2478133 44:-0.17397934 45:-0.31722111 46:-0.15619448 47:-0.066107452 48:0.3402518 49:0.45770654 50:0.45438784 51:-0.26362848 52:-0.52965069 53:-0.11550517 54:-0.28615856 55:-0.071466878 56:-0.15077041 57:0.620224 #
0.017839103840643990434022825297689 1:-0.32373646 2:-0.17667121 3:-0.50017285 4:-0.098842546 5:-0.44537586 6:-0.34561899 7:-0.26157999 8:-0.31560028 9:-0.30961666 10:9.5019302 11:-0.22640149 12:-0.60592264 13:-0.21933696 14:-0.16083114 15:-0.15391792 16:-0.30765641 17:-0.37343216 18:-0.36310151 19:-0.88086981 20:-0.14419276 21:-0.57808203 22:-0.062323686 23:-0.26375422 24:-0.25234732 25:-0.40743604 26:-0.4047187 27:-0.27057403 28:-0.30796358 29:-0.16733444 30:-0.27352092 31:-0.20108834 32:-0.16073692 33:-0.18338262 34:-0.16487801 35:-0.27398148 36:-0.30811864 37:-0.39074841 38:-0.11907394 39:-0.21418162 40:-0.20511942 41:-0.13776088 42:-0.16252463 43:-0.2478133 44:-0.17397934 45:-0.31722111 46:-0.15619448 47:-0.066107452 48:-0.14383133 49:2.2154043 50:-0.64531434 51:-0.26362848 52:-0.52965069 53:-0.34909117 54:-0.28615856 55:-0.025981244 56:-0.2134269 57:-0.4039534 #
0.017839103840643990434022825297689 1:10.243002 2:-0.17667121 3:-0.50017285 4:-0.098842546 5:-0.44537586 6:-0.34561899 7:-0.26157999 8:-0.31560028 9:-0.30961666 10:-0.41393355 11:-0.22640149 12:-0.60592264 13:-0.21933696 14:-0.16083114 15:-0.15391792 16:-0.30765641 17:-0.37343216 18:-0.36310151 19:-0.88086981 20:-0.14419276 21:-0.57808203 22:-0.062323686 23:-0.26375422 24:-0.25234732 25:-0.40743604 26:-0.4047187 27:-0.27057403 28:-0.30796358 29:-0.16733444 30:-0.27352092 31:-0.20108834 32:-0.16073692 33:-0.18338262 34:-0.16487801 35:-0.27398148 36:-0.30811864 37:-0.39074841 38:-0.11907394 39:-0.21418162 40:-0.20511942 41:-0.13776088 42:-0.16252463 43:-0.2478133 44:-0.17397934 45:-0.31722111 46:-0.15619448 47:-0.066107452 48:-0.14383133 49:-0.22159693 50:-0.64531434 51:-0.26362848 52:-0.52965069 53:-0.34909117 54:-0.28615856 55:-0.040723186 56:-0.2134269 57:-0.50547534 #
0.017839103840643990434022825297689 1:-0.32373646 2:-0.17667121 3:-0.50017285 4:-0.098842546 5:-0.44537586 6:-0.34561899 7:-0.26157999 8:-0.31560028 9:-0.30961666 10:-0.41393355 11:-0.22640149 12:-0.60592264 13:-0.21933696 14:-0.16083114 15:-0.15391792 16:1.8539789 17:-0.37343216 18:-0.36310151 19:-0.88086981 20:-0.14419276 21:-0.57808203 22:6.206018 23:-0.26375422 24:-0.25234732 25:-0.40743604 26:-0.4047187 27:-0.27057403 28:-0.30796358 29:-0.16733444 30:-0.27352092 31:-0.20108834 32:-0.16073692 33:-0.18338262 34:-0.16487801 35:-0.27398148 36:-0.30811864 37:-0.39074841 38:-0.11907394 39:-0.21418162 40:-0.20511942 41:-0.13776088 42:-0.16252463 43:-0.2478133 44:-0.17397934 45:-0.31722111 46:-0.15619448 47:-0.066107452 48:-0.14383133 49:5.8411865 50:-0.64531434 51:-0.26362848 52:0.16268739 53:-0.34909117 54:-0.28615856 55:-0.025981244 56:-0.23132877 57:-0.32631898 #
-0.017839103840643990434022825297689 1:-0.32373646 2:-0.17667121 3:-0.50017285 4:-0.098842546 5:-0.44537586 6:-0.34561899 7:-0.26157999 8:-0.31560028 9:-0.30961666 10:-0.41393355 11:-0.22640149 12:-0.60592264 13:-0.21933696 14:-0.16083114 15:-0.15391792 16:-0.30765641 17:-0.37343216 18:-0.36310151 19:-0.88086981 20:-0.14419276 21:-0.57808203 22:-0.062323686 23:-0.26375422 24:-0.25234732 25:-0.40743604 26:-0.4047187 27:-0.27057403 28:-0.30796358 29:-0.16733444 30:-0.27352092 31:-0.20108834 32:-0.16073692 33:-0.18338262 34:-0.16487801 35:-0.27398148 36:-0.30811864 37:-0.39074841 38:-0.11907394 39:-0.21418162 40:-0.20511942 41:-0.13776088 42:-0.16252463 43:-0.2478133 44:-0.17397934 45:13.376667 46:-0.15619448 47:-0.066107452 48:-0.14383133 49:-0.22159693 50:-0.64531434 51:-0.26362848 52:23.710909 53:-0.34909117 54:-0.28615856 55:-0.07754489 56:-0.3029362 57:-0.61296922 #
0.017839103840643990434022825297689 1:-0.32373646 2:-0.17667121 3:-0.50017285 4:-0.098842546 5:-0.44537586 6:-0.34561899 7:-0.26157999 8:-0.31560028 9:-0.30961666 10:8.7319927 11:-0.22640149 12:-0.60592264 13:-0.21933696 14:-0.16083114 15:-0.15391792 16:-0.30765641 17:-0.37343216 18:-0.36310151 19:0.21325025 20:-0.14419276 21:-0.57808203 22:-0.062323686 23:-0.26375422 24:-0.25234732 25:-0.40743604 26:-0.4047187 27:-0.27057403 28:-0.30796358 29:-0.16733444 30:-0.27352092 31:-0.20108834 32:-0.16073692 33:-0.18338262 34:-0.16487801 35:-0.27398148 36:-0.30811864 37:-0.39074841 38:-0.11907394 39:-0.21418162 40:-0.20511942 41:-0.13776088 42:-0.16252463 43:-0.2478133 44:-0.17397934 45:-0.31722111 46:-0.15619448 47:-0.066107452 48:-0.14383133 49:-0.22159693 50:-0.64531434 51:-0.26362848 52:-0.52965069 53:-0.34909117 54:-0.28615856 55:-0.08749073 56:-0.3029362 57:-0.54429257 #
-0.0066623111783121642670568718358481 1:-0.32373646 2:-0.17667121 3:-0.50017285 4:-0.098842546 5:11.599271 6:-0.34561899 7:-0.26157999 8:-0.31560028 9:-0.30961666 10:-0.41393355 11:-0.22640149 12:-0.60592264 13:-0.21933696 14:-0.16083114 15:-0.15391792 16:-0.30765641 17:-0.37343216 18:-0.36310151 19:-0.88086981 20:-0.14419276 21:-0.57808203 22:-0.062323686 23:-0.26375422 24:-0.25234732 25:-0.40743604 26:-0.4047187 27:-0.27057403 28:-0.30796358 29:-0.16733444 30:-0.27352092 31:-0.20108834 32:-0.16073692 33:-0.18338262 34:-0.16487801 35:-0.27398148 36:-0.30811864 37:-0.39074841 38:-0.11907394 39:-0.21418162 40:-0.20511942 41:-0.13776088 42:-0.16252463 43:-0.2478133 44:-0.17397934 45:-0.31722111 46:-0.15619448 47:-0.066107452 48:-0.14383133 49:-0.22159693 50:-0.64531434 51:-0.26362848 52:-0.52965069 53:-0.34909117 54:-0.28615856 55:-0.099646755 56:-0.32083806 57:-0.63387078 #
-0.017839103840643990434022825297689 1:-0.32373646 2:1.7119839 3:1.7568049 4:-0.098842546 5:-0.44537586 6:-0.34561899 7:-0.26157999 8:-0.31560028 9:-0.30961666 10:5.0922875 11:-0.22640149 12:0.17024253 13:-0.21933696 14:-0.16083114 15:-0.15391792 16:-0.30765641 17:-0.37343216 18:-0.36310151 19:-0.66316223 20:-0.14419276 21:-0.57808203 22:24.427036 23:-0.26375422 24:-0.25234732 25:-0.40743604 26:-0.4047187 27:-0.27057403 28:-0.30796358 29:-0.16733444 30:-0.27352092 31:-0.20108834 32:-0.16073692 33:-0.18338262 34:-0.16487801 35:-0.27398148 36:-0.30811864 37:-0.39074841 38:-0.11907394 39:-0.21418162 40:-0.20511942 41:-0.13776088 42:-0.16252463 43:-0.2478133 44:-0.17397934 45:-0.31722111 46:-0.15619448 47:-0.066107452 48:-0.14383133 49:9.5518818 50:0.27716312 51:-0.26362848 52:0.25868386 53:-0.34909117 54:1.1328368 55:0.0039888821 56:-0.061261114 57:0.34850347 #
0.017839103840643990434022825297689 1:-0.32373646 2:0.10001077 3:-0.50017285 4:-0.098842546 5:-0.14061584 6:1.7910134 7:-0.26157999 8:1.8320105 9:-0.30961666 10:1.8025538 11:11.515856 12:1.0459161 13:-0.21933696 14:18.471964 15:-0.15391792 16:-0.30765641 17:-0.37343216 18:-0.36310151 19:1.2403834 20:-0.14419276 21:0.079571165 22:-0.062323686 23:0.75440103 24:-0.25234732 25:-0.055740528 26:-0.4047187 27:-0.27057403 28:-0.30796358 29:-0.16733444 30:-0.27352092 31:-0.20108834 32:-0.16073692 33:-0.18338262 34:-0.16487801 35:-0.27398148 36:-0.30811864 37:1.9137126 38:-0.11907394 39:-0.21418162 40:-0.20511942 41:-0.13776088 42:0.093928084 43:-0.2478133 44:-0.17397934 45:0.069101065 46:-0.15619448 47:-0.066107452 48:-0.14383133 49:-0.22159693 50:-0.095463261 51:0.48441511 52:-0.52965069 53:-0.11550517 54:-0.28615856 55:-0.038203575 56:0.16251212 57:-0.072514065 #
0.017839103840643990434022825297689 1:-0.32373646 2:-0.17667121 3:3.6121171 4:-0.098842546 5:0.97242075 6:-0.34561899 7:-0.26157999 8:-0.31560028 9:-0.30961666 10:-0.41393355 11:-0.22640149 12:-0.60592264 13:-0.21933696 14:-0.16083114 15:-0.15391792 16:-0.30765641 17:-0.37343216 18:-0.36310151 19:-0.28356957 20:-0.14419276 21:0.16264315 22:-0.062323686 23:-0.26375422 24:-0.25234732 25:-0.40743604 26:-0.4047187 27:-0.27057403 28:-0.30796358 29:-0.16733444 30:-0.27352092 31:-0.20108834 32:-0.16073692 33:-0.18338262 34:-0.16487801 35:-0.27398148 36:-0.30811864 37:-0.39074841 38:-0.11907394 39:-0.21418162 40:-0.20511942 41:-0.13776088 42:-0.16252463 43:-0.2478133 44:-0.17397934 45:-0.31722111 46:-0.15619448 47:-0.066107452 48:-0.14383133 49:-0.22159693 50:-0.64531434 51:-0.26362848 52:0.02887415 53:-0.34909117 54:-0.28615856 55:-0.070184968 56:-0.15972133 57:-0.49054566 #
0.017839103840643990434022825297689 1:-0.32373646 2:-0.17667121 3:6.1559987 4:-0.098842546 5:-0.44537586 6:-0.34561899 7:-0.26157999 8:4.9848862 9:5.1551127 10:-0.41393355 11:-0.22640149 12:-0.60592264 13:-0.21933696 14:-0.16083114 15:-0.15391792 16:-0.30765641 17:-0.37343216 18:-0.36310151 19:0.41421109 20:-0.14419276 21:-0.57808203 22:-0.062323686 23:-0.26375422 24:-0.25234732 25:-0.40743604 26:-0.4047187 27:-0.27057403 28:-0.30796358 29:-0.16733444 30:-0.27352092 31:-0.20108834 32:-0.16073692 33:-0.18338262 34:-0.16487801 35:-0.27398148 36:-0.30811864 37:-0.39074841 38:-0.11907394 39:-0.21418162 40:-0.20511942 41:-0.13776088 42:-0.16252463 43:-0.2478133 44:-0.17397934 45:-0.31722111 46:-0.15619448 47:-0.066107452 48:-0.14383133 49:-0.22159693 50:-0.64531434 51:-0.26362848 52:3.5574713 53:-0.34909117 54:-0.28615856 55:0.077168152 56:-0.07916297 57:-0.42186904 #
0.017839103840643990434022825297689 1:-0.32373646 2:-0.17667121 3:-0.13676119 4:-0.098842546 5:-0.19361758 6:-0.34561899 7:-0.26157999 8:0.5525828 9:0.58546835 10:0.02936391 11:-0.22640149 12:-0.41685677 13:0.35419875 14:-0.16083114 15:-0.15391792 16:0.71274287 17:-0.37343216 18:-0.36310151 19:-0.35055649 20:-0.14419276 21:0.2111018 22:-0.062323686 23:-0.26375422 24:-0.25234732 25:-0.40743604 26:-0.4047187 27:-0.27057403 28:-0.30796358 29:-0.16733444 30:-0.27352092 31:-0.20108834 32:-0.16073692 33:-0.18338262 34:-0.16487801 35:-0.27398148 36:0.082759462 37:-0.39074841 38:-0.11907394 39:0.19145247 40:-0.20511942 41:-0.13776088 42:-0.16252463 43:0.97401506 44:-0.17397934 45:-0.16104831 46:-0.15619448 47:-0.066107452 48:-0.14383133 49:-0.22159693 50:-0.38174936 51:-0.26362848 52:0.23832096 53:-0.34909117 54:-0.28615856 55:-0.032169767 56:0.5026474 57:0.50078642 #
0.017839103840643990434022825297689 1:-0.32373646 2:-0.17667121 3:0.092761979 4:-0.098842546 5:0.37615114 6:2.4729173 7:1.0801386 8:1.100909 9:-0.30961666 10:3.972378 11:2.562947 12:0.63793182 13:-0.21933696 14:-0.16083114 15:1.7856381 16:1.7868474 17:0.39375758 18:-0.36310151 19:1.2180544 20:-0.14419276 21:0.28725111 22:-0.062323686 23:-0.26375422 24:-0.25234732 25:-0.40743604 26:-0.4047187 27:-0.27057403 28:-0.30796358 29:-0.16733444 30:-0.27352092 31:-0.20108834 32:-0.16073692 33:-0.18338262 34:-0.16487801 35:-0.27398148 36:-0.30811864 37:-0.39074841 38:-0.11907394 39:-0.21418162 40:-0.20511942 41:-0.13776088 42:-0.16252463 43:-0.2478133 44:-0.17397934 45:-0.31722111 46:-0.15619448 47:-0.066107452 48:-0.14383133 49:-0.22159693 50:-0.64531434 51:-0.26362848 52:1.7102666 53:-0.34909117 54:-0.28615856 55:-0.066913895 56:-0.23132877 57:-0.23674077 #
0.017839103840643990434022825297689 1:-0.32373646 2:-0.17667121 3:-0.50017285 4:-0.098842546 5:-0.44537586 6:-0.34561899 7:-0.26157999 8:-0.31560028 9:-0.30961666 10:2.7358115 11:-0.22640149 12:-0.60592264 13:-0.21933696 14:-0.16083114 15:-0.15391792 16:1.504895 17:-0.37343216 18:-0.36310151 19:-0.12726671 20:-0.14419276 21:-0.57808203 22:-0.062323686 23:11.688503 24:-0.25234732 25:0.26128078 26:0.98956978 27:-0.27057403 28:-0.30796358 29:-0.16733444 30:-0.27352092 31:-0.20108834 32:-0.16073692 33:-0.18338262 34:-0.16487801 35:-0.27398148 36:-0.30811864 37:-0.39074841 38:-0.11907394 39:-0.21418162 40:-0.20511942 41:-0.13776088 42:-0.16252463 43:-0.2478133 44:-0.17397934 45:-0.31722111 46:-0.15619448 47:-0.066107452 48:-0.14383133 49:-0.22159693 50:-0.64531434 51:-0.26362848 52:4.8112431 53:-0.34909117 54:-0.28615856 55:-0.049143996 56:-0.15972133 57:-0.36215025 #
0.017839103840643990434022825297689 1:-0.32373646 2:-0.17667121 3:-0.50017285 4:-0.098842546 5:-0.44537586 6:8.2009106 7:-0.26157999 8:-0.31560028 9:-0.30961666 10:-0.41393355 11:-0.22640149 12:-0.60592264 13:-0.21933696 14:-0.16083114 15:-0.15391792 16:-0.30765641 17:-0.37343216 18:-0.36310151 19:0.16859229 20:-0.14419276 21:-0.57808203 22:-0.062323686 23:-0.26375422 24:-0.25234732 25:-0.40743604 26:-0.4047187 27:-0.27057403 28:-0.30796358 29:-0.16733444 30:-0.27352092 31:-0.20108834 32:-0.16073692 33:2.7144024 34:-0.16487801 35:-0.27398148 36:-0.30811864 37:4.1696587 38:-0.11907394 39:-0.21418162 40:-0.20511942 41:-0.13776088 42:-0.16252463 43:-0.2478133 44:-0.17397934 45:-0.31722111 46:-0.15619448 47:-0.066107452 48:-0.14383133 49:-0.22159693 50:-0.64531434 51:-0.26362848 52:-0.52965069 53:-0.34909117 54:-0.28615856 55:-0.044392094 56:-0.19552505 57:-0.49054566 #
0.017839103840643990434022825297689 1:-0.32373646 2:-0.17667121 3:-0.50017285 4:-0.098842546 5:-0.44537586 6:-0.34561899 7:-0.26157999 8:-0.31560028 9:-0.30961666 10:-0.41393355 11:-0.22640149 12:-0.60592264 13:-0.21933696 14:14.474123 15:-0.15391792 16:-0.30765641 17:-0.37343216 18:-0.36310151 19:-0.88086981 20:-0.14419276 21:-0.57808203 22:-0.062323686 23:-0.26375422 24:-0.25234732 25:-0.40743604 26:-0.4047187 27:-0.27057403 28:2.0147018 29:-0.16733444 30:-0.27352092 31:-0.20108834 32:-0.16073692 33:-0.18338262 34:-0.16487801 35:-0.27398148 36:-0.30811864 37:-0.39074841 38:-0.11907394 39:-0.21418162 40:-0.20511942 41:-0.13776088 42:-0.16252463 43:-0.2478133 44:-0.17397934 45:-0.31722111 46:5.1337147 47:-0.066107452 48:-0.14383133 49:0.61054981 50:2.0312335 51:-0.26362848 52:-0.52965069 53:-0.34909117 54:-0.28615856 55:-0.076572403 56:-0.13286854 57:-0.36215025 #
0.017839103840643990434022825297689 1:-0.32373646 2:-0.17667121 3:-0.50017285 4:-0.098842546 5:-0.44537586 6:-0.34561899 7:-0.26157999 8:-0.31560028 9:-0.30961666 10:2.3625085 11:-0.22640149 12:-0.60592264 13:-0.21933696 14:-0.16083114 15:-0.15391792 16:1.290074 17:-0.37343216 18:-0.36310151 19:1.1119918 20:-0.14419276 21:1.8933095 22:-0.062323686 23:-0.26375422 24:-0.25234732 25:0.18202546 26:0.82432079 27:-0.27057403 28:-0.30796358 29:-0.16733444 30:-0.27352092 31:-0.20108834 32:-0.16073692 33:-0.18338262 34:-0.16487801 35:-0.27398148 36:-0.30811864 37:-0.39074841 38:-0.11907394 39:-0.21418162 40:-0.20511942 41:-0.13776088 42:-0.16252463 43:-0.2478133 44:-0.17397934 45:0.66091377 46:-0.15619448 47:-0.066107452 48:-0.14383133 49:-0.22159693 50:-0.64531434 51:-0.26362848 52:0.063781954 53:-0.34909117 54:-0.28615856 55:0.069123074 56:0.03719911 57:-0.35319242 #
0.017839103840643990434022825297689 1:-0.32373646 2:0.02783286 3:-0.50017285 4:-0.098842546 5:-0.44537586 6:-0.34561899 7:0.10631058 8:0.46119511 9:-0.30961666 10:-0.01729898 11:-0.22640149 12:-0.60592264 13:-0.21933696 14:2.3378196 15:-0.15391792 16:-0.30765641 17:-0.37343216 18:-0.36310151 19:-0.88086981 20:-0.14419276 21:-0.46039671 22:-0.062323686 23:0.48879534 24:-0.25234732 25:1.2618793 26:1.4233484 27:-0.27057403 28:-0.30796358 29:-0.16733444 30:0.087007388 31:-0.20108834 32:-0.16073692 33:-0.18338262 34:-0.16487801 35:-0.27398148 36:-0.30811864 37:-0.39074841 38:-0.11907394 39:0.14875415 40:-0.20511942 41:-0.13776088 42:-0.16252463 43:-0.2478133 44:-0.17397934 45:-0.029534377 46:-0.15619448 47:-0.066107452 48:-0.14383133 49:0.69546276 50:0.33623803 51:0.87713802 52:-0.39583746 53:-0.17390168 54:-0.28615856 55:-0.027616782 56:0.43103999 57:9.2704926 #
-0.017836099733631469166361682709976 1:-0.32373646 2:-0.17667121 3:-0.50017285 4:-0.098842546 5:-0.44537586 6:-0.34561899 7:-0.26157999 8:-0.31560028 9:24.470104 10:-0.41393355 11:-0.22640149 12:-0.60592264 13:-0.21933696 14:-0.16083114 15:-0.15391792 16:-0.30765641 17:6.1353064 18:-0.36310151 19:0.58726066 20:-0.14419276 21:3.0632398 22:-0.062323686 23:-0.26375422 24:-0.25234732 25:-0.40743604 26:-0.4047187 27:-0.27057403 28:-0.30796358 29:-0.16733444 30:-0.27352092 31:-0.20108834 32:-0.16073692 33:-0.18338262 34:-0.16487801 35:-0.27398148 36:-0.30811864 37:-0.39074841 38:-0.11907394 39:-0.21418162 40:-0.20511942 41:-0.13776088 42:-0.16252463 43:-0.2478133 44:-0.17397934 45:-0.31722111 46:-0.15619448 47:-0.066107452 48:-0.14383133 49:-0.22159693 50:-0.64531434 51:-0.26362848 52:-0.52965069 53:-0.34909117 54:-0.28615856 55:-0.076262981 56:-0.23132877 57:-0.53234881 #
0.017839103840643990434022825297689 1:-0.32373646 2:-0.17667121 3:0.18839663 4:-0.098842546 5:0.34965029 6:0.19990416 7:-0.0018925259 8:-0.31560028 9:-0.30961666 10:-0.41393355 11:0.31347239 12:-0.12828255 13:0.14289613 14:0.69584912 15:-0.15391792 16:-0.14654073 17:-0.37343216 18:0.77037853 19:0.46445128 20:-0.14419276 21:-0.41193807 22:-0.062323686 23:-0.26375422 24:-0.25234732 25:-0.40743604 26:-0.4047187 27:-0.27057403 28:-0.30796358 29:-0.16733444 30:-0.27352092 31:-0.20108834 32:-0.16073692 33:-0.18338262 34:-0.16487801 35:-0.27398148 36:-0.30811864 37:-0.39074841 38:-0.11907394 39:-0.21418162 40:-0.20511942 41:-0.13776088 42:-0.16252463 43:-0.2478133 44:-0.17397934 45:-0.31722111 46:-0.15619448 47:-0.066107452 48:-0.14383133 49:0.25391552 50:-0.47717807 51:-0.26362848 52:-0.36674762 53:0.19983594 54:-0.28615856 55:-0.094209693 56:-0.20447598 57:0.52467394 #
0.017839103840643990434022825297689 1:-0.32373646 2:-0.17667121 3:-0.50017285 4:-0.098842546 5:-0.44537586 6:-0.34561899 7:-0.26157999 8:-0.31560028 9:-0.30961666 10:-0.41393355 11:-0.22640149 12:-0.60592264 13:-0.21933696 14:12.689373 15:-0.15391792 16:-0.30765641 17:1.1114511 18:-0.36310151 19:-0.21100038 20:-0.14419276 21:-0.57808203 22:-0.062323686 23:-0.26375422 24:-0.25234732 25:-0.40743604 26:-0.4047187 27:-0.27057403 28:1.7414471 29:-0.16733444 30:-0.27352092 31:-0.20108834 32:-0.16073692 33:-0.18338262 34:-0.16487801 35:-0.27398148 36:-0.30811864 37:-0.39074841 38:-0.11907394 39:-0.21418162 40:-0.20511942 41:-0.13776088 42:-0.16252463 43:-0.2478133 44:1.1377236 45:-0.31722111 46:3.3316579 47:-0.066107452 48:-0.14383133 49:-0.22159693 50:0.71340859 51:-0.26362848 52:-0.52965069 53:-0.34909117 54:3.9284694 55:-0.067267522 56:-0.07916297 57:-0.3203471 #
0.017839103840643990434022825297689 1:-0.32373646 2:-0.17667121 3:-0.50017285 4:-0.098842546 5:-0.44537586 6:-0.34561899 7:-0.26157999 8:-0.31560028 9:-0.30961666 10:-0.41393355 11:-0.22640149 12:-0.60592264 13:-0.21933696 14:-0.16083114 15:-0.15391792 16:-0.30765641 17:-0.37343216 18:-0.36310151 19:-0.88086981 20:-0.14419276 21:-0.57808203 22:-0.062323686 23:-0.26375422 24:-0.25234732 25:-0.40743604 26:-0.4047187 27:-0.27057403 28:-0.30796358 29:-0.16733444 30:-0.27352092 31:-0.20108834 32:-0.16073692 33:-0.18338262 34:-0.16487801 35:-0.27398148 36:-0.30811864 37:-0.39074841 38:-0.11907394 39:-0.21418162 40:-0.20511942 41:-0.13776088 42:-0.16252463 43:-0.2478133 44:-0.17397934 45:-0.31722111 46:2.6922183 47:-0.066107452 48:-0.14383133 49:-0.22159693 50:1.0087832 51:-0.26362848 52:-0.52965069 53:-0.34909117 54:-0.28615856 55:-0.050359599 56:0.010346321 57:-0.26062828 #
0.017839103840643990434022825297689 1:-0.32373646 2:-0.17667121 3:-0.50017285 4:-0.098842546 5:-0.44537586 6:-0.34561899 7:-0.26157999 8:-0.31560028 9:-0.30961666 10:-0.41393355 11:-0.22640149 12:-0.60592264 13:-0.21933696 14:14.545513 15:-0.15391792 16:-0.30765641 17:-0.37343216 18:-0.36310151 19:-0.88086981 20:-0.14419276 21:-0.57808203 22:-0.062323686 23:-0.26375422 24:-0.25234732 25:-0.40743604 26:-0.4047187 27:-0.27057403 28:-0.30796358 29:-0.16733444 30:-0.27352092 31:-0.20108834 32:-0.16073692 33:-0.18338262 34:-0.16487801 35:-0.27398148 36:1.8108522 37:-0.39074841 38:-0.11907394 39:-0.21418162 40:-0.20511942 41:-0.13776088 42:-0.16252463 43:-0.2478133 44:-0.17397934 45:0.52939981 46:-0.15619448 47:-0.066107452 48:-0.14383133 49:-0.22159693 50:0.095394149 51:-0.26362848 52:-0.055486374 53:1.5546348 54:-0.28615856 55:-0.043397512 56:-0.14181948 57:-0.4039534 #
-0.017839103840643990434022825297689 1:-0.32373646 2:-0.17667121 3:-0.50017285 4:-0.098842546 5:-0.44537586 6:-0.34561899 7:-0.26157999 8:-0.31560028 9:-0.30961666 10:-0.41393355 11:-0.22640149 12:-0.60592264 13:-0.21933696 14:-0.16083114 15:-0.15391792 16:-0.30765641 17:-0.37343216 18:-0.36310151 19:-0.88086981 20:-0.14419276 21:-0.57808203 22:-0.062323686 23:-0.26375422 24:-0.25234732 25:-0.40743604 26:-0.4047187 27:-0.27057403 28:-0.30796358 29:-0.16733444 30:-0.27352092 31:-0.20108834 32:-0.16073692 33:-0.18338262 34:-0.16487801 35:-0.27398148 36:-0.30811864 37:-0.39074841 38:-0.11907394 39:-0.21418162 40:-0.20511942 41:-0.13776088 42:-0.16252463 43:-0.2478133 44:-0.17397934 45:-0.31722111 46:-0.15619448 47:-0.066107452 48:-0.14383133 49:-0.22159693 50:-0.64531434 51:-0.26362848 52:-0.52965069 53:-0.34909117 54:-0.28615856 55:-0.080020301 56:-0.28503433 57:-0.58609575 #
0.017839103840643990434022825297689 1:-0.32373646 2:-0.17667121 3:0.99172771 4:-0.098842546 5:0.58815813 6:-0.34561899 7:0.86373234 8:2.0604799 9:-0.30961666 10:2.0125368 11:-0.22640149 12:-0.34720093 13:4.4896932 14:-0.16083114 15:4.7262554 16:-0.30765641 17:-0.37343216 18:2.5839467 19:0.2802372 20:-0.14419276 21:0.50185376 22:-0.062323686 23:2.038162 24:-0.25234732 25:-0.40743604 26:-0.4047187 27:-0.27057403 28:-0.30796358 29:-0.16733444 30:-0.27352092 31:-0.20108834 32:-0.16073692 33:-0.18338262 34:-0.16487801 35:-0.27398148 36:-0.30811864 37:-0.39074841 38:-0.11907394 39:-0.21418162 40:0.99471509 41:-0.13776088 42:-0.16252463 43:-0.2478133 44:-0.17397934 45:-0.31722111 46:-0.15619448 47:-0.066107452 48:-0.14383133 49:-0.22159693 50:-0.28177646 51:-0.26362848 52:0.75902903 53:1.9984483 54:-0.28615856 55:-0.068483122 56:-0.15972133 57:0.082754821 #
-0.017839103840643990434022825297689 1:-0.32373646 2:-0.17667121 3:-0.50017285 4:-0.098842546 5:-0.44537586 6:-0.34561899 7:-0.26157999 8:-0.31560028 9:-0.30961666 10:-0.41393355 11:-0.22640149 12:-0.60592264 13:-0.21933696 14:-0.16083114 15:-0.15391792 16:-0.30765641 17:-0.37343216 18:-0.36310151 19:-0.88086981 20:-0.14419276 21:-0.57808203 22:-0.062323686 23:-0.26375422 24:-0.25234732 25:-0.40743604 26:-0.4047187 27:-0.27057403 28:-0.30796358 29:-0.16733444 30:-0.27352092 31:-0.20108834 32:-0.16073692 33:27.838816 34:-0.16487801 35:-0.27398148 36:-0.30811864 37:-0.39074841 38:-0.11907394 39:-0.21418162 40:-0.20511942 41:-0.13776088 42:-0.16252463 43:-0.2478133 44:-0.17397934 45:-0.31722111 46:-0.15619448 47:-0.066107452 48:-0.14383133 49:-0.22159693 50:-0.64531434 51:26.834251 52:-0.52965069 53:-0.34909117 54:-0.28615856 55:-0.07754489 56:-0.28503433 57:-0.59505355 #
-0.017839103840643990434022825297689 1:-0.32373646 2:-0.17667121 3:-0.50017285 4:-0.098842546 5:0.826666 6:1.8364737 7:-0.26157999 8:-0.31560028 9:1.9516507 10:-0.41393355 11:1.933094 12:-0.12828255 13:-0.21933696 14:-0.16083114 15:-0.15391792 16:1.6257317 17:-0.37343216 18:3.2640347 19:-0.34497425 20:-0.14419276 21:0.41878176 22:-0.062323686 23:1.8610916 24:-0.25234732 25:-0.40743604 26:-0.4047187 27:-0.27057403 28:-0.30796358 29:-0.16733444 30:-0.27352092 31:-0.20108834 32:-0.16073692 33:-0.18338262 34:-0.16487801 35:-0.27398148 36:-0.30811864 37:-0.39074841 38:-0.11907394 39:-0.21418162 40:-0.20511942 41:-0.13776088 42:-0.16252463 43:1.2955489 44:-0.17397934 45:-0.31722111 46:-0.15619448 47:-0.066107452 48:-0.14383133 49:-0.22159693 50:-0.64531434 51:-0.26362848 52:1.4077324 53:-0.34909117 54:-0.28615856 55:-0.02368265 56:-0.088113904 57:-0.21285325 #
-0.017839103840643990434022825297689 1:8.373168 2:-0.17667121 3:-0.50017285 4:-0.098842546 5:-0.44537586 6:-0.34561899 7:-0.26157999 8:-0.31560028 9:-0.30961666 10:-0.41393355 11:8.7714968 12:1.3842444 13:-0.21933696 14:-0.16083114 15:-0.15391792 16:-0.30765641 17:-0.37343216 18:-0.36310151 19:0.23557924 20:-0.14419276 21:4.9600501 22:-0.062323686 23:-0.26375422 24:-0.25234732 25:-0.40743604 26:-0.4047187 27:-0.27057403 28:-0.30796358 29:-0.16733444 30:-0.27352092 31:-0.20108834 32:-0.16073692 33:-0.18338262 34:-0.16487801 35:-0.27398148 36:-0.30811864 37:-0.39074841 38:-0.11907394 39:-0.21418162 40:-0.20511942 41:-0.13776088 42:-0.16252463 43:-0.2478133 44:-0.17397934 45:-0.31722111 46:-0.15619448 47:-0.066107452 48:-0.14383133 49:-0.22159693 50:-0.64531434 51:-0.26362848 52:-0.52965069 53:-0.34909117 54:-0.28615856 55:0.008387153 56:-0.070212044 57:-0.4786019 #
-0.017839103840643990434022825297689 1:-0.32373646 2:0.22030728 3:-0.19414198 4:-0.098842546 5:1.0784242 6:1.1545697 7:0.084669963 8:-0.31560028 9:-0.30961666 10:2.6658173 11:-0.22640149 12:-0.44670928 13:-0.21933696 14:0.98140919 15:0.84714329 16:1.0215479 17:-0.37343216 18:-0.36310151 19:0.68215883 20:-0.14419276 21:1.0210537 22:-0.062323686 23:1.1970773 24:-0.25234732 25:-0.40743604 26:-0.4047187 27:-0.22006607 28:-0.30796358 29:-0.16733444 30:-0.27352092 31:-0.20108834 32:-0.16073692 33:-0.18338262 34:-0.16487801 35:-0.27398148 36:-0.30811864 37:0.79786837 38:-0.11907394 39:-0.21418162 40:-0.20511942 41:-0.13776088 42:-0.16252463 43:-0.2478133 44:-0.17397934 45:-0.045973618 46:-0.15619448 47:-0.066107452 48:-0.14383133 49:-0.22159693 50:-0.072742142 51:-0.26362848 52:-0.30856794 53:0.094722234 54:0.24331732 55:-0.046580181 56:0.001395392 57:0.45002544 #
-0.017839103840643990434022825297689 1:-0.32373646 2:-0.17667121 3:-0.50017285 4:-0.098842546 5:-0.44537586 6:-0.34561899 7:-0.26157999 8:-0.31560028 9:-0.30961666 10:8.9186449 11:-0.22640149 12:-0.60592264 13:-0.21933696 14:-0.16083114 15:-0.15391792 16:-0.30765641 17:-0.37343216 18:-0.36310151 19:1.3520283 20:-0.14419276 21:-0.57808203 22:-0.062323686 23:-0.26375422 24:-0.25234732 25:-0.40743604 26:-0.4047187 27:-0.27057403 28:-0.30796358 29:-0.16733444 30:-0.27352092 31:-0.20108834 32:-0.16073692 33:-0.18338262 34:-0.16487801 35:-0.27398148 36:-0.30811864 37:-0.39074841 38:-0.11907394 39:-0.21418162 40:-0.20511942 41:-0.13776088 42:-0.16252463 43:-0.2478133 44:-0.17397934 45:-0.31722111 46:-0.15619448 47:-0.066107452 48:-0.14383133 49:-0.22159693 50:-0.64531434 51:-0.26362848 52:-0.52965069 53:-0.34909117 54:-0.28615856 55:-0.099646755 56:-0.32083806 57:-0.60998327 #
-0.017839103840643990434022825297689 1:-0.32373646 2:-0.17667121 3:-0.50017285 4:-0.098842546 5:2.4299688 6:-0.34561899 7:-0.26157999 8:-0.31560028 9:-0.30961666 10:-0.41393355 11:-0.22640149 12:-0.60592264 13:-0.21933696 14:30.822439 15:-0.15391792 16:-0.30765641 17:-0.37343216 18:-0.36310151 19:0.33047742 20:-0.14419276 21:-0.57808203 22:-0.062323686 23:-0.26375422 24:-0.25234732 25:-0.40743604 26:-0.4047187 27:-0.27057403 28:-0.30796358 29:-0.16733444 30:-0.27352092 31:-0.20108834 32:-0.16073692 33:-0.18338262 34:-0.16487801 35:-0.27398148 36:-0.30811864 37:-0.39074841 38:-0.11907394 39:-0.21418162 40:-0.20511942 41:-0.13776088 42:-0.16252463 43:-0.2478133 44:-0.17397934 45:-0.31722111 46:-0.15619448 47:-0.066107452 48:-0.14383133 49:-0.22159693 50:1.0224159 51:-0.26362848 52:-0.52965069 53:-0.34909117 54:-0.28615856 55:-0.099646755 56:-0.32083806 57:-0.61296922 #
-0.017839103840643990434022825297689 1:-0.32373646 2:-0.17667121 3:-0.50017285 4:-0.098842546 5:-0.44537586 6:-0.34561899 7:-0.26157999 8:-0.31560028 9:-0.30961666 10:-0.41393355 11:-0.22640149 12:3.0758865 13:-0.21933696 14:-0.16083114 15:-0.15391792 16:-0.30765641 17:-0.37343216 18:6.6266923 19:-0.88086981 20:-0.14419276 21:-0.57808203 22:-0.062323686 23:-0.26375422 24:-0.25234732 25:1.4253434 26:-0.4047187 27:-0.27057403 28:-0.30796358 29:-0.16733444 30:7.5732718 31:-0.20108834 32:-0.16073692 33:-0.18338262 34:-0.16487801 35:-0.27398148 36:-0.30811864 37:8.5845213 38:-0.11907394 39:-0.21418162 40:-0.20511942 41:-0.13776088 42:-0.16252463 43:-0.2478133 44:-0.17397934 45:-0.31722111 46:-0.15619448 47:-0.066107452 48:-0.14383133 49:-0.22159693 50:-0.64531434 51:-0.26362848 52:-0.52965069 53:-0.34909117 54:-0.28615856 55:-0.089347281 56:-0.27608341 57:-0.57116604 #
-0.017839103840643990434022825297689 1:-0.32373646 2:-0.17667121 3:-0.50017285 4:-0.098842546 5:-0.44537586 6:-0.34561899 7:4.5426383 8:9.828434 9:-0.30961666 10:-0.41393355 11:-0.22640149 12:-0.60592264 13:-0.21933696 14:-0.16083114 15:-0.15391792 16:-0.30765641 17:-0.37343216 18:-0.36310151 19:-0.88086981 20:-0.14419276 21:-0.57808203 22:-0.062323686 23:-0.26375422 24:-0.25234732 25:-0.40743604 26:-0.4047187 27:-0.27057403 28:-0.30796358 29:-0.16733444 30:-0.27352092 31:-0.20108834 32:-0.16073692 33:-0.18338262 34:-0.16487801 35:-0.27398148 36:-0.30811864 37:-0.39074841 38:-0.11907394 39:-0.21418162 40:-0.20511942 41:-0.13776088 42:-0.16252463 43:-0.2478133 44:-0.17397934 45:-0.31722111 46:-0.15619448 47:-0.066107452 48:-0.14383133 49:-0.22159693 50:2.3765945 51:-0.26362848 52:-0.52965069 53:3.5342762 54:-0.28615856 55:-0.020721 56:-0.10601576 57:-0.44575658 #
0.017839103840643990434022825297689 1:-0.32373646 2:-0.17667121 3:-0.50017285 4:-0.098842546 5:-0.44537586 6:-0.34561899 7:-0.26157999 8:50.450264 9:-0.30961666 10:-0.41393355 11:-0.22640149 12:-0.60592264 13:-0.21933696 14:-0.16083114 15:-0.15391792 16:-0.30765641 17:-0.37343216 18:-0.36310151 19:-0.88086981 20:-0.14419276 21:7.112999 22:-0.062323686 23:-0.26375422 24:-0.25234732 25:-0.40743604 26:-0.4047187 27:-0.27057403 28:-0.30796358 29:-0.16733444 30:-0.27352092 31:-0.20108834 32:-0.16073692 33:-0.18338262 34:-0.16487801 35:-0.27398148 36:-0.30811864 37:-0.39074841 38:-0.11907394 39:-0.21418162 40:-0.20511942 41:-0.13776088 42:-0.16252463 43:-0.2478133 44:-0.17397934 45:4.2446685 46:-0.15619448 47:-0.066107452 48:-0.14383133 49:-0.22159693 50:-0.64531434 51:-0.26362848 52:-0.52965069 53:-0.34909117 54:-0.28615856 55:-0.099646755 56:-0.32083806 57:-0.62491298 #
0.017839103840643990434022825297689 1:-0.32373646 2:-0.17667121 3:2.9235477 4:-0.098842546 5:-0.44537586 6:2.3365366 7:-0.26157999 8:2.3803368 9:-0.30961666 10:-0.41393355 11:-0.22640149 12:-0.60592264 13:-0.21933696 14:-0.16083114 15:-0.15391792 16:-0.30765641 17:-0.37343216 18:-0.36310151 19:-0.88086981 20:-0.14419276 21:-0.57808203 22:-0.062323686 23:2.3480353 24:-0.25234732 25:-0.40743604 26:-0.4047187 27:-0.27057403 28:-0.30796358 29:-0.16733444 30:-0.27352092 31:-0.20108834 32:-0.16073692 33:-0.18338262 34:-0.16487801 35:-0.27398148 36:-0.30811864 37:-0.39074841 38:-0.11907394 39:-0.21418162 40:2.5406556 41:-0.13776088 42:-0.16252463 43:-0.2478133 44:-0.17397934 45:-0.31722111 46:-0.15619448 47:-0.066107452 48:-0.14383133 49:-0.22159693 50:-0.64531434 51:-0.26362848 52:-0.52965069 53:-0.34909117 54:-0.28615856 55:-0.075268395 56:-0.2402797 57:-0.027724965 #
-0.0016771404881557019830168320240205 1:-0.32373646 2:-0.17667121 3:-0.50017285 4:-0.098842546 5:-0.44537586 6:-0.34561899 7:-0.26157999 8:-0.31560028 9:-0.30961666 10:-0.41393355 11:-0.22640149 12:-0.60592264 13:-0.21933696 14:-0.16083114 15:-0.15391792 16:-0.30765641 17:-0.37343216 18:-0.36310151 19:1.7148741 20:-0.14419276 21:-0.57808203 22:-0.062323686 23:-0.26375422 24:-0.25234732 25:-0.40743604 26:-0.4047187 27:-0.27057403 28:-0.30796358 29:-0.16733444 30:-0.27352092 31:-0.20108834 32:-0.16073692 33:-0.18338262 34:-0.16487801 35:-0.27398148 36:-0.30811864 37:-0.39074841 38:-0.11907394 39:-0.21418162 40:-0.20511942 41:-0.13776088 42:-0.16252463 43:-0.2478133 44:-0.17397934 45:-0.31722111 46:4.3392596 47:-0.066107452 48:-0.14383133 49:-0.22159693 50:-0.64531434 51:-0.26362848 52:-0.52965069 53:4.1065621 54:-0.28615856 55:-0.07354445 56:-0.27608341 57:-0.56519419 #
-0.017839103840643990434022825297689 1:-0.32373646 2:-0.17667121 3:-0.50017285 4:-0.098842546 5:-0.44537586 6:-0.34561899 7:-0.26157999 8:-0.31560028 9:-0.30961666 10:4.1590295 11:-0.22640149 12:-0.60592264 13:-0.21933696 14:-0.16083114 15:-0.15391792 16:-0.30765641 17:-0.37343216 18:3.3396001 19:0.21325025 20:-0.14419276 21:-0.57808203 22:-0.062323686 23:-0.26375422 24:-0.25234732 25:-0.40743604 26:-0.4047187 27:-0.27057403 28:3.0394073 29:-0.16733444 30:-0.27352092 31:-0.20108834 32:-0.16073692 33:-0.18338262 34:-0.16487801 35:-0.27398148 36:-0.30811864 37:-0.39074841 38:-0.11907394 39:-0.21418162 40:-0.20511942 41:-0.13776088 42:-0.16252463 43:-0.2478133 44:-0.17397934 45:-0.31722111 46:-0.15619448 47:-0.066107452 48:-0.14383133 49:-0.22159693 50:1.0496812 51:-0.26362848 52:-0.52965069 53:-0.34909117 54:-0.28615856 55:-0.080705456 56:-0.23132877 57:-0.55922228 #
-0.017839103840643990434022825297689 1:0.67640752 2:0.10001077 3:-0.50017285 4:-0.098842546 5:-0.14061584 6:0.69996709 7:-0.26157999 8:1.8320105 9:0.7739073 10:0.12268969 11:0.80835682 12:-0.37705344 13:-0.21933696 14:-0.16083114 15:-0.15391792 16:0.0011486383 17:-0.37343216 18:-0.36310151 19:0.72123456 20:-0.14419276 21:0.744147 22:-0.062323686 23:0.75440103 24:0.93879509 25:-0.40743604 26:-0.4047187 27:-0.27057403 28:-0.30796358 29:-0.16733444 30:-0.27352092 31:-0.20108834 32:-0.16073692 33:-0.18338262 34:-0.16487801 35:-0.27398148 36:-0.30811864 37:-0.39074841 38:-0.11907394 39:-0.21418162 40:-0.20511942 41:-0.13776088 42:-0.16252463 43:-0.2478133 44:-0.17397934 45:-0.12816982 46:-0.15619448 47:-0.066107452 48:-0.14383133 49:-0.22159693 50:-0.64531434 51:-0.26362848 52:0.54667324 53:0.84803712 54:0.58218187 55:-0.071334265 56:-0.11496669 57:-0.20090948 #
0.017839103840643990434022825297689 1:-0.32373646 2:-0.17667121 3:-0.50017285 4:-0.098842546 5:-0.44537586 6:-0.34561899 7:-0.26157999 8:27.37487 9:-0.30961666 10:-0.41393355 11:-0.22640149 12:-0.60592264 13:-0.21933696 14:-0.16083114 15:-0.15391792 16:-0.30765641 17:-0.37343216 18:-0.36310151 19:2.5019708 20:-0.14419276 21:-0.57808203 22:-0.062323686 23:-0.26375422 24:-0.25234732 25:-0.40743604 26:-0.4047187 27:-0.27057403 28:-0.30796358 29:-0.16733444 30:-0.27352092 31:-0.20108834 32:-0.16073692 33:-0.18338262 34:-0.16487801 35:-0.27398148 36:-0.30811864 37:-0.39074841 38:-0.11907394 39:-0.21418162 40:-0.20511942 41:-0.13776088 42:-0.16252463 43:-0.2478133 44:-0.17397934 45:-0.31722111 46:-0.15619448 47:-0.066107452 48:-0.14383133 49:-0.22159693 50:-0.64531434 51:-0.26362848 52:0.86666143 53:2.4539409 54:-0.28615856 55:-0.084529079 56:-0.2402797 57:-0.54130667 #
0.017839103840643990434022825297689 1:0.63292295 2:-0.17667121 3:-0.50017285 4:-0.098842546 5:-0.44537586 6:0.6545068 7:0.21451369 8:-0.31560028 9:-0.30961666 10:0.099358246 11:-0.22640149 12:-0.38700426 13:-0.21933696 14:-0.16083114 15:-0.15391792 16:-0.012277667 17:-0.37343216 18:-0.36310151 19:0.25232598 20:-0.14419276 21:-0.4257834 22:-0.062323686 23:-0.26375422 24:-0.25234732 25:-0.40743604 26:-0.4047187 27:-0.27057403 28:-0.30796358 29:-0.16733444 30:-0.27352092 31:-0.20108834 32:-0.16073692 33:-0.18338262 34:-0.16487801 35:-0.27398148 36:-0.30811864 37:-0.39074841 38:-0.11907394 39:-0.21418162 40:-0.20511942 41:-0.13776088 42:-0.16252463 43:-0.2478133 44:-0.17397934 45:-0.31722111 46:-0.15619448 47:-0.066107452 48:-0.14383133 49:-0.22159693 50:18.763065 51:-0.26362848 52:1.3524617 53:-0.34909117 54:-0.28615856 55:-0.080440231 56:-0.14181948 57:0.0051203761 #
-0.017839103840643990434022825297689 1:-0.32373646 2:-0.17667121 3:-0.50017285 4:-0.098842546 5:-0.44537586 6:-0.34561899 7:4.5426383 8:9.828434 9:-0.30961666 10:-0.41393355 11:-0.22640149 12:-0.60592264 13:-0.21933696 14:-0.16083114 15:-0.15391792 16:-0.30765641 17:-0.37343216 18:-0.36310151 19:-0.88086981 20:-0.14419276 21:-0.57808203 22:-0.062323686 23:-0.26375422 24:-0.25234732 25:-0.40743604 26:-0.4047187 27:-0.27057403 28:-0.30796358 29:-0.16733444 30:-0.27352092 31:-0.20108834 32:-0.16073692 33:-0.18338262 34:-0.16487801 35:-0.27398148 36:-0.30811864 37:-0.39074841 38:-0.11907394 39:-0.21418162 40:-0.20511942 41:-0.13776088 42:-0.16252463 43:-0.2478133 44:-0.17397934 45:-0.31722111 46:-0.15619448 47:-0.066107452 48:-0.14383133 49:-0.22159693 50:2.3765945 51:-0.26362848 52:-0.52965069 53:3.5342762 54:-0.28615856 55:-0.020721 56:-0.10601576 57:-0.44575658 #
0.017839103840643990434022825297689 1:0.11110874 2:0.42481133 3:0.64744294 4:-0.098842546 5:-0.047862791 6:0.56358629 7:-0.26157999 8:-0.31560028 9:0.16148071 10:0.51932424 11:-0.22640149 12:0.98621106 13:0.38438484 14:-0.16083114 15:-0.15391792 16:-0.30765641 17:-0.1259516 18:-0.36310151 19:1.2459656 20:-0.14419276 21:0.18341115 22:-0.062323686 23:-0.26375422 24:0.26554066 25:-0.40743604 26:-0.4047187 27:-0.27057403 28:-0.30796358 29:-0.16733444 30:-0.27352092 31:-0.20108834 32:-0.16073692 33:-0.18338262 34:-0.16487801 35:-0.27398148 36:-0.30811864 37:-0.39074841 38:-0.11907394 39:-0.21418162 40:-0.20511942 41:-0.13776088 42:-0.16252463 43:-0.2478133 44:-0.17397934 45:-0.31722111 46:-0.15619448 47:-0.066107452 48:-0.14383133 49:6.4016118 50:-0.47717807 51:-0.26362848 52:16.755529 53:7.4410024 54:-0.28615856 55:0.0072820596 56:0.15356119 57:1.5249639 #
-0.017839103840643990434022825297689 1:-0.32373646 2:-0.17667121 3:0.24577741 4:-0.098842546 5:0.071391135 6:1.4273313 7:-0.26157999 8:-0.31560028 9:-0.30961666 10:-0.41393355 11:-0.22640149 12:-0.60592264 13:0.95792055 14:-0.16083114 15:-0.15391792 16:0.21596953 17:-0.37343216 18:0.37366053 19:-0.22774711 20:-0.14419276 21:-0.038114142 22:-0.062323686 23:1.462683 24:1.7674159 25:-0.40743604 26:-0.4047187 27:-0.27057403 28:-0.30796358 29:-0.16733444 30:-0.27352092 31:-0.20108834 32:-0.16073692 33:-0.18338262 34:-0.16487801 35:-0.27398148 36:-0.30811864 37:-0.39074841 38:-0.11907394 39:-0.21418162 40:-0.20511942 41:-0.13776088 42:-0.16252463 43:-0.2478133 44:-0.17397934 45:-0.31722111 46:0.59950686 47:-0.066107452 48:-0.14383133 49:-0.22159693 50:-0.34993979 51:0.95194238 52:0.22959401 53:0.030486083 54:-0.28615856 55:-0.057874233 56:0.16251212 57:-0.16209227 #
-0.0074036951791808377695836007603702 1:-0.32373646 2:-0.17667121 3:-0.50017285 4:-0.098842546 5:-0.44537586 6:-0.34561899 7:-0.26157999 8:-0.31560028 9:-0.30961666 10:4.6489902 11:-0.22640149 12:-0.60592264 13:-0.21933696 14:-0.16083114 15:-0.15391792 16:-0.30765641 17:-0.37343216 18:-0.36310151 19:-0.88086981 20:-0.14419276 21:-0.57808203 22:-0.062323686 23:-0.26375422 24:-0.25234732 25:6.0518732 26:-0.4047187 27:-0.27057403 28:-0.30796358 29:-0.16733444 30:8.9305544 31:-0.20108834 32:-0.16073692 33:-0.18338262 34:-0.16487801 35:-0.27398148 36:-0.30811864 37:-0.39074841 38:-0.11907394 39:-0.21418162 40:-0.20511942 41:-0.13776088 42:-0.16252463 43:-0.2478133 44:-0.17397934 45:-0.31722111 46:-0.15619448 47:-0.066107452 48:-0.14383133 49:-0.22159693 50:-0.64531434 51:-0.26362848 52:-0.52965069 53:-0.34909117 54:156.58696 55:-0.043176491 56:-0.15972133 57:-0.35020649 #
0.017839103840643990434022825297689 1:-0.32373646 2:-0.17667121 3:-0.50017285 4:-0.098842546 5:9.7442093 6:-0.34561899 7:-0.26157999 8:-0.31560028 9:-0.30961666 10:-0.41393355 11:-0.22640149 12:-0.60592264 13:-0.21933696 14:-0.16083114 15:-0.15391792 16:-0.30765641 17:-0.37343216 18:-0.36310151 19:-0.88086981 20:-0.14419276 21:-0.57808203 22:-0.062323686 23:-0.26375422 24:-0.25234732 25:-0.40743604 26:-0.4047187 27:-0.27057403 28:-0.30796358 29:-0.16733444 30:-0.27352092 31:-0.20108834 32:-0.16073692 33:-0.18338262 34:-0.16487801 35:-0.27398148 36:-0.30811864 37:-0.39074841 38:-0.11907394 39:-0.21418162 40:-0.20511942 41:-0.13776088 42:-0.16252463 43:-0.2478133 44:-0.17397934 45:-0.31722111 46:-0.15619448 47:-0.066107452 48:-0.14383133 49:-0.22159693 50:2.0266893 51:-0.26362848 52:-0.52965069 53:-0.34909117 54:-0.28615856 55:-0.099646755 56:-0.32083806 57:-0.61894107 #
0.017839103840643990434022825297689 1:-0.32373646 2:-0.17667121 3:-0.50017285 4:-0.098842546 5:-0.44537586 6:-0.34561899 7:-0.26157999 8:-0.31560028 9:-0.30961666 10:-0.41393355 11:-0.22640149 12:-0.60592264 13:-0.21933696 14:14.474123 15:-0.15391792 16:-0.30765641 17:-0.37343216 18:-0.36310151 19:-0.88086981 20:-0.14419276 21:-0.57808203 22:-0.062323686 23:-0.26375422 24:-0.25234732 25:-0.40743604 26:-0.4047187 27:-0.27057403 28:2.0147018 29:-0.16733444 30:-0.27352092 31:-0.20108834 32:-0.16073692 33:-0.18338262 34:-0.16487801 35:-0.27398148 36:-0.30811864 37:-0.39074841 38:-0.11907394 39:-0.21418162 40:-0.20511942 41:-0.13776088 42:-0.16252463 43:-0.2478133 44:-0.17397934 45:-0.31722111 46:5.1337147 47:-0.066107452 48:-0.14383133 49:0.61054981 50:2.0312335 51:-0.26362848 52:-0.52965069 53:-0.34909117 54:-0.28615856 55:-0.076572403 56:-0.13286854 57:-0.36215025 #
